{"learner":{"attributes":{"best_iteration":"1509","best_score":"24190.975106608697"},"feature_names":[],"feature_types":[],"gradient_booster":{"model":{"gbtree_model_param":{"num_parallel_tree":"1","num_trees":"1610"},"iteration_indptr":[0,1,2,3,4,5,6,7,8,9,10,11,12,13,14,15,16,17,18,19,20,21,22,23,24,25,26,27,28,29,30,31,32,33,34,35,36,37,38,39,40,41,42,43,44,45,46,47,48,49,50,51,52,53,54,55,56,57,58,59,60,61,62,63,64,65,66,67,68,69,70,71,72,73,74,75,76,77,78,79,80,81,82,83,84,85,86,87,88,89,90,91,92,93,94,95,96,97,98,99,100,101,102,103,104,105,106,107,108,109,110,111,112,113,114,115,116,117,118,119,120,121,122,123,124,125,126,127,128,129,130,131,132,133,134,135,136,137,138,139,140,141,142,143,144,145,146,147,148,149,150,151,152,153,154,155,156,157,158,159,160,161,162,163,164,165,166,167,168,169,170,171,172,173,174,175,176,177,178,179,180,181,182,183,184,185,186,187,188,189,190,191,192,193,194,195,196,197,198,199,200,201,202,203,204,205,206,207,208,209,210,211,212,213,214,215,216,217,218,219,220,221,222,223,224,225,226,227,228,229,230,231,232,233,234,235,236,237,238,239,240,241,242,243,244,245,246,247,248,249,250,251,252,253,254,255,256,257,258,259,260,261,262,263,264,265,266,267,268,269,270,271,272,273,274,275,276,277,278,279,280,281,282,283,284,285,286,287,288,289,290,291,292,293,294,295,296,297,298,299,300,301,302,303,304,305,306,307,308,309,310,311,312,313,314,315,316,317,318,319,320,321,322,323,324,325,326,327,328,329,330,331,332,333,334,335,336,337,338,339,340,341,342,343,344,345,346,347,348,349,350,351,352,353,354,355,356,357,358,359,360,361,362,363,364,365,366,367,368,369,370,371,372,373,374,375,376,377,378,379,380,381,382,383,384,385,386,387,388,389,390,391,392,393,394,395,396,397,398,399,400,401,402,403,404,405,406,407,408,409,410,411,412,413,414,415,416,417,418,419,420,421,422,423,424,425,426,427,428,429,430,431,432,433,434,435,436,437,438,439,440,441,442,443,444,445,446,447,448,449,450,451,452,453,454,455,456,457,458,459,460,461,462,463,464,465,466,467,468,469,470,471,472,473,474,475,476,477,478,479,480,481,482,483,484,485,486,487,488,489,490,491,492,493,494,495,496,497,498,499,500,501,502,503,504,505,506,507,508,509,510,511,512,513,514,515,516,517,518,519,520,521,522,523,524,525,526,527,528,529,530,531,532,533,534,535,536,537,538,539,540,541,542,543,544,545,546,547,548,549,550,551,552,553,554,555,556,557,558,559,560,561,562,563,564,565,566,567,568,569,570,571,572,573,574,575,576,577,578,579,580,581,582,583,584,585,586,587,588,589,590,591,592,593,594,595,596,597,598,599,600,601,602,603,604,605,606,607,608,609,610,611,612,613,614,615,616,617,618,619,620,621,622,623,624,625,626,627,628,629,630,631,632,633,634,635,636,637,638,639,640,641,642,643,644,645,646,647,648,649,650,651,652,653,654,655,656,657,658,659,660,661,662,663,664,665,666,667,668,669,670,671,672,673,674,675,676,677,678,679,680,681,682,683,684,685,686,687,688,689,690,691,692,693,694,695,696,697,698,699,700,701,702,703,704,705,706,707,708,709,710,711,712,713,714,715,716,717,718,719,720,721,722,723,724,725,726,727,728,729,730,731,732,733,734,735,736,737,738,739,740,741,742,743,744,745,746,747,748,749,750,751,752,753,754,755,756,757,758,759,760,761,762,763,764,765,766,767,768,769,770,771,772,773,774,775,776,777,778,779,780,781,782,783,784,785,786,787,788,789,790,791,792,793,794,795,796,797,798,799,800,801,802,803,804,805,806,807,808,809,810,811,812,813,814,815,816,817,818,819,820,821,822,823,824,825,826,827,828,829,830,831,832,833,834,835,836,837,838,839,840,841,842,843,844,845,846,847,848,849,850,851,852,853,854,855,856,857,858,859,860,861,862,863,864,865,866,867,868,869,870,871,872,873,874,875,876,877,878,879,880,881,882,883,884,885,886,887,888,889,890,891,892,893,894,895,896,897,898,899,900,901,902,903,904,905,906,907,908,909,910,911,912,913,914,915,916,917,918,919,920,921,922,923,924,925,926,927,928,929,930,931,932,933,934,935,936,937,938,939,940,941,942,943,944,945,946,947,948,949,950,951,952,953,954,955,956,957,958,959,960,961,962,963,964,965,966,967,968,969,970,971,972,973,974,975,976,977,978,979,980,981,982,983,984,985,986,987,988,989,990,991,992,993,994,995,996,997,998,999,1000,1001,1002,1003,1004,1005,1006,1007,1008,1009,1010,1011,1012,1013,1014,1015,1016,1017,1018,1019,1020,1021,1022,1023,1024,1025,1026,1027,1028,1029,1030,1031,1032,1033,1034,1035,1036,1037,1038,1039,1040,1041,1042,1043,1044,1045,1046,1047,1048,1049,1050,1051,1052,1053,1054,1055,1056,1057,1058,1059,1060,1061,1062,1063,1064,1065,1066,1067,1068,1069,1070,1071,1072,1073,1074,1075,1076,1077,1078,1079,1080,1081,1082,1083,1084,1085,1086,1087,1088,1089,1090,1091,1092,1093,1094,1095,1096,1097,1098,1099,1100,1101,1102,1103,1104,1105,1106,1107,1108,1109,1110,1111,1112,1113,1114,1115,1116,1117,1118,1119,1120,1121,1122,1123,1124,1125,1126,1127,1128,1129,1130,1131,1132,1133,1134,1135,1136,1137,1138,1139,1140,1141,1142,1143,1144,1145,1146,1147,1148,1149,1150,1151,1152,1153,1154,1155,1156,1157,1158,1159,1160,1161,1162,1163,1164,1165,1166,1167,1168,1169,1170,1171,1172,1173,1174,1175,1176,1177,1178,1179,1180,1181,1182,1183,1184,1185,1186,1187,1188,1189,1190,1191,1192,1193,1194,1195,1196,1197,1198,1199,1200,1201,1202,1203,1204,1205,1206,1207,1208,1209,1210,1211,1212,1213,1214,1215,1216,1217,1218,1219,1220,1221,1222,1223,1224,1225,1226,1227,1228,1229,1230,1231,1232,1233,1234,1235,1236,1237,1238,1239,1240,1241,1242,1243,1244,1245,1246,1247,1248,1249,1250,1251,1252,1253,1254,1255,1256,1257,1258,1259,1260,1261,1262,1263,1264,1265,1266,1267,1268,1269,1270,1271,1272,1273,1274,1275,1276,1277,1278,1279,1280,1281,1282,1283,1284,1285,1286,1287,1288,1289,1290,1291,1292,1293,1294,1295,1296,1297,1298,1299,1300,1301,1302,1303,1304,1305,1306,1307,1308,1309,1310,1311,1312,1313,1314,1315,1316,1317,1318,1319,1320,1321,1322,1323,1324,1325,1326,1327,1328,1329,1330,1331,1332,1333,1334,1335,1336,1337,1338,1339,1340,1341,1342,1343,1344,1345,1346,1347,1348,1349,1350,1351,1352,1353,1354,1355,1356,1357,1358,1359,1360,1361,1362,1363,1364,1365,1366,1367,1368,1369,1370,1371,1372,1373,1374,1375,1376,1377,1378,1379,1380,1381,1382,1383,1384,1385,1386,1387,1388,1389,1390,1391,1392,1393,1394,1395,1396,1397,1398,1399,1400,1401,1402,1403,1404,1405,1406,1407,1408,1409,1410,1411,1412,1413,1414,1415,1416,1417,1418,1419,1420,1421,1422,1423,1424,1425,1426,1427,1428,1429,1430,1431,1432,1433,1434,1435,1436,1437,1438,1439,1440,1441,1442,1443,1444,1445,1446,1447,1448,1449,1450,1451,1452,1453,1454,1455,1456,1457,1458,1459,1460,1461,1462,1463,1464,1465,1466,1467,1468,1469,1470,1471,1472,1473,1474,1475,1476,1477,1478,1479,1480,1481,1482,1483,1484,1485,1486,1487,1488,1489,1490,1491,1492,1493,1494,1495,1496,1497,1498,1499,1500,1501,1502,1503,1504,1505,1506,1507,1508,1509,1510,1511,1512,1513,1514,1515,1516,1517,1518,1519,1520,1521,1522,1523,1524,1525,1526,1527,1528,1529,1530,1531,1532,1533,1534,1535,1536,1537,1538,1539,1540,1541,1542,1543,1544,1545,1546,1547,1548,1549,1550,1551,1552,1553,1554,1555,1556,1557,1558,1559,1560,1561,1562,1563,1564,1565,1566,1567,1568,1569,1570,1571,1572,1573,1574,1575,1576,1577,1578,1579,1580,1581,1582,1583,1584,1585,1586,1587,1588,1589,1590,1591,1592,1593,1594,1595,1596,1597,1598,1599,1600,1601,1602,1603,1604,1605,1606,1607,1608,1609,1610],"tree_info":[0,0,0,0,0,0,0,0,0,0,0,0,0,0,0,0,0,0,0,0,0,0,0,0,0,0,0,0,0,0,0,0,0,0,0,0,0,0,0,0,0,0,0,0,0,0,0,0,0,0,0,0,0,0,0,0,0,0,0,0,0,0,0,0,0,0,0,0,0,0,0,0,0,0,0,0,0,0,0,0,0,0,0,0,0,0,0,0,0,0,0,0,0,0,0,0,0,0,0,0,0,0,0,0,0,0,0,0,0,0,0,0,0,0,0,0,0,0,0,0,0,0,0,0,0,0,0,0,0,0,0,0,0,0,0,0,0,0,0,0,0,0,0,0,0,0,0,0,0,0,0,0,0,0,0,0,0,0,0,0,0,0,0,0,0,0,0,0,0,0,0,0,0,0,0,0,0,0,0,0,0,0,0,0,0,0,0,0,0,0,0,0,0,0,0,0,0,0,0,0,0,0,0,0,0,0,0,0,0,0,0,0,0,0,0,0,0,0,0,0,0,0,0,0,0,0,0,0,0,0,0,0,0,0,0,0,0,0,0,0,0,0,0,0,0,0,0,0,0,0,0,0,0,0,0,0,0,0,0,0,0,0,0,0,0,0,0,0,0,0,0,0,0,0,0,0,0,0,0,0,0,0,0,0,0,0,0,0,0,0,0,0,0,0,0,0,0,0,0,0,0,0,0,0,0,0,0,0,0,0,0,0,0,0,0,0,0,0,0,0,0,0,0,0,0,0,0,0,0,0,0,0,0,0,0,0,0,0,0,0,0,0,0,0,0,0,0,0,0,0,0,0,0,0,0,0,0,0,0,0,0,0,0,0,0,0,0,0,0,0,0,0,0,0,0,0,0,0,0,0,0,0,0,0,0,0,0,0,0,0,0,0,0,0,0,0,0,0,0,0,0,0,0,0,0,0,0,0,0,0,0,0,0,0,0,0,0,0,0,0,0,0,0,0,0,0,0,0,0,0,0,0,0,0,0,0,0,0,0,0,0,0,0,0,0,0,0,0,0,0,0,0,0,0,0,0,0,0,0,0,0,0,0,0,0,0,0,0,0,0,0,0,0,0,0,0,0,0,0,0,0,0,0,0,0,0,0,0,0,0,0,0,0,0,0,0,0,0,0,0,0,0,0,0,0,0,0,0,0,0,0,0,0,0,0,0,0,0,0,0,0,0,0,0,0,0,0,0,0,0,0,0,0,0,0,0,0,0,0,0,0,0,0,0,0,0,0,0,0,0,0,0,0,0,0,0,0,0,0,0,0,0,0,0,0,0,0,0,0,0,0,0,0,0,0,0,0,0,0,0,0,0,0,0,0,0,0,0,0,0,0,0,0,0,0,0,0,0,0,0,0,0,0,0,0,0,0,0,0,0,0,0,0,0,0,0,0,0,0,0,0,0,0,0,0,0,0,0,0,0,0,0,0,0,0,0,0,0,0,0,0,0,0,0,0,0,0,0,0,0,0,0,0,0,0,0,0,0,0,0,0,0,0,0,0,0,0,0,0,0,0,0,0,0,0,0,0,0,0,0,0,0,0,0,0,0,0,0,0,0,0,0,0,0,0,0,0,0,0,0,0,0,0,0,0,0,0,0,0,0,0,0,0,0,0,0,0,0,0,0,0,0,0,0,0,0,0,0,0,0,0,0,0,0,0,0,0,0,0,0,0,0,0,0,0,0,0,0,0,0,0,0,0,0,0,0,0,0,0,0,0,0,0,0,0,0,0,0,0,0,0,0,0,0,0,0,0,0,0,0,0,0,0,0,0,0,0,0,0,0,0,0,0,0,0,0,0,0,0,0,0,0,0,0,0,0,0,0,0,0,0,0,0,0,0,0,0,0,0,0,0,0,0,0,0,0,0,0,0,0,0,0,0,0,0,0,0,0,0,0,0,0,0,0,0,0,0,0,0,0,0,0,0,0,0,0,0,0,0,0,0,0,0,0,0,0,0,0,0,0,0,0,0,0,0,0,0,0,0,0,0,0,0,0,0,0,0,0,0,0,0,0,0,0,0,0,0,0,0,0,0,0,0,0,0,0,0,0,0,0,0,0,0,0,0,0,0,0,0,0,0,0,0,0,0,0,0,0,0,0,0,0,0,0,0,0,0,0,0,0,0,0,0,0,0,0,0,0,0,0,0,0,0,0,0,0,0,0,0,0,0,0,0,0,0,0,0,0,0,0,0,0,0,0,0,0,0,0,0,0,0,0,0,0,0,0,0,0,0,0,0,0,0,0,0,0,0,0,0,0,0,0,0,0,0,0,0,0,0,0,0,0,0,0,0,0,0,0,0,0,0,0,0,0,0,0,0,0,0,0,0,0,0,0,0,0,0,0,0,0,0,0,0,0,0,0,0,0,0,0,0,0,0,0,0,0,0,0,0,0,0,0,0,0,0,0,0,0,0,0,0,0,0,0,0,0,0,0,0,0,0,0,0,0,0,0,0,0,0,0,0,0,0,0,0,0,0,0,0,0,0,0,0,0,0,0,0,0,0,0,0,0,0,0,0,0,0,0,0,0,0,0,0,0,0,0,0,0,0,0,0,0,0,0,0,0,0,0,0,0,0,0,0,0,0,0,0,0,0,0,0,0,0,0,0,0,0,0,0,0,0,0,0,0,0,0,0,0,0,0,0,0,0,0,0,0,0,0,0,0,0,0,0,0,0,0,0,0,0,0,0,0,0,0,0,0,0,0,0,0,0,0,0,0,0,0,0,0,0,0,0,0,0,0,0,0,0,0,0,0,0,0,0,0,0,0,0,0,0,0,0,0,0,0,0,0,0,0,0,0,0,0,0,0,0,0,0,0,0,0,0,0,0,0,0,0,0,0,0,0,0,0,0,0,0,0,0,0,0,0,0,0,0,0,0,0,0,0,0,0,0,0,0,0,0,0,0,0,0,0,0,0,0,0,0,0,0,0,0,0,0,0,0,0,0,0,0,0,0,0,0,0,0,0,0,0,0,0,0,0,0,0,0,0,0,0,0,0,0,0,0,0,0,0,0,0,0,0,0,0,0,0,0,0,0,0,0,0,0,0,0,0,0,0,0,0,0,0,0,0,0,0,0,0,0,0,0,0,0,0,0,0,0,0,0,0,0,0,0,0,0,0,0,0,0,0,0,0,0,0,0,0,0,0,0,0,0,0,0,0,0,0,0,0,0,0,0,0,0,0,0,0,0,0,0,0,0,0,0,0,0,0,0,0,0,0,0,0,0,0,0,0,0,0,0,0,0,0,0,0,0,0,0,0,0,0,0,0,0,0,0,0,0,0,0,0,0,0,0,0,0,0,0,0,0,0,0,0,0,0,0,0,0,0,0,0,0,0,0,0,0,0,0,0,0,0,0,0,0,0,0,0,0,0,0,0,0,0,0,0,0,0,0,0,0,0,0,0,0,0,0,0,0,0,0,0,0,0,0,0,0,0,0,0,0,0,0,0,0,0,0,0,0,0,0,0,0,0,0,0,0,0,0,0,0,0,0,0,0,0,0,0,0,0,0,0,0,0,0,0,0,0,0,0,0,0,0,0,0,0,0,0,0,0,0,0,0,0,0,0,0,0,0,0,0,0,0,0,0,0,0,0,0,0,0,0,0,0,0,0,0,0,0,0,0,0,0,0,0,0],"trees":[{"base_weights":[1.3221888E3,-2.186738E4,1.2313591E5,-3.7996945E4,2.6387365E4,7.899593E4,1.7520183E5,-5.361923E4,-1.2346385E4,8.963738E3,5.742732E4,9.6608805E4,4.0948902E4,1.119053E5,2.1415552E5,-6.574818E2,-3.4595956E2,-3.472545E2,1.4889427E1,-2.3290044E2,1.82277E2,3.8344925E2,7.2101465E2,6.3469354E2,1.1947997E3,5.4261463E1,5.253143E2,4.287821E2,1.2504691E3,1.1625314E3,2.4198682E3],"categories":[],"categories_nodes":[],"categories_segments":[],"categories_sizes":[],"default_left":[0,0,0,0,0,0,0,0,0,0,0,0,0,0,0,0,0,0,0,0,0,0,0,0,0,0,0,0,0,0,0],"id":0,"left_children":[1,3,5,7,9,11,13,15,17,19,21,23,25,27,29,-1,-1,-1,-1,-1,-1,-1,-1,-1,-1,-1,-1,-1,-1,-1,-1],"loss_changes":[2.649537E12,6.143251E11,3.3088812E11,2.3616376E11,1.065693E11,5.1663766E10,1.4369777E11,8.240405E10,6.9716574E10,3.8670635E10,1.7116561E10,3.4861187E10,1.1235373E10,2.0037763E10,8.358317E10,0E0,0E0,0E0,0E0,0E0,0E0,0E0,0E0,0E0,0E0,0E0,0E0,0E0,0E0,0E0,0E0],"parents":[2147483647,0,0,1,1,2,2,3,3,4,4,5,5,6,6,7,7,8,8,9,9,10,10,11,11,12,12,13,13,14,14],"right_children":[2,4,6,8,10,12,14,16,18,20,22,24,26,28,30,-1,-1,-1,-1,-1,-1,-1,-1,-1,-1,-1,-1,-1,-1,-1,-1],"split_conditions":[1.3747946E0,6.5147924E-1,8.652883E-1,-1.9696102E-1,5.968705E-1,1E0,7.5913894E-1,-2.9143527E-1,-7.1836114E-2,1E0,9.890271E-1,1.1078101E0,5.873034E-1,-5.652152E-1,1.6503069E0,-6.574818E2,-3.4595956E2,-3.472545E2,1.4889427E1,-2.3290044E2,1.82277E2,3.8344925E2,7.2101465E2,6.3469354E2,1.1947997E3,5.4261463E1,5.253143E2,4.287821E2,1.2504691E3,1.1625314E3,2.4198682E3],"split_indices":[4,4,16,16,16,150,13,13,4,216,16,17,6,8,26,0,0,0,0,0,0,0,0,0,0,0,0,0,0,0,0],"split_type":[0,0,0,0,0,0,0,0,0,0,0,0,0,0,0,0,0,0,0,0,0,0,0,0,0,0,0,0,0,0,0],"sum_hessian":[9.36E2,7.87E2,1.49E2,5.9E2,1.97E2,8.2E1,6.7E1,3.66E2,2.24E2,1.27E2,7E1,5.5E1,2.7E1,2.7E1,4E1,2.22E2,1.44E2,8.5E1,1.39E2,2.8E1,9.9E1,3.2E1,3.8E1,2.4E1,3.1E1,7E0,2E1,5E0,2.2E1,1E1,3E1],"tree_param":{"num_deleted":"0","num_feature":"261","num_nodes":"31","size_leaf_vector":"1"}},{"base_weights":[-9.3842224E2,-2.2719723E4,1.12359875E5,-3.9739406E4,2.3866338E4,8.583996E4,1.8248062E5,-5.3829207E4,-1.3943881E4,1.2593499E4,7.737564E4,6.791077E4,1.472566E5,1.480552E5,2.4259072E3,-6.553003E2,-3.370717E2,8.961513E1,-3.100272E2,1.8913441E2,-2.3865923E2,6.023327E2,1.1085981E3,3.6966156E2,8.706457E2,8.3549347E2,1.638507E3,1.6315637E3,9.8046466E2],"categories":[],"categories_nodes":[],"categories_segments":[],"categories_sizes":[],"default_left":[0,0,0,0,0,0,0,0,0,0,0,0,0,0,0,0,0,0,0,0,0,0,0,0,0,0,0,0,0],"id":1,"left_children":[1,3,5,7,9,11,13,15,17,19,21,23,25,27,-1,-1,-1,-1,-1,-1,-1,-1,-1,-1,-1,-1,-1,-1,-1],"loss_changes":[2.2803175E12,6.154304E11,2.6141563E11,2.0569122E11,1.2449152E11,1.1112618E11,4.685575E10,8.419928E10,7.9207195E10,4.0314294E10,1.398648E10,4.8347087E10,1.1682349E10,5.1484426E9,0E0,0E0,0E0,0E0,0E0,0E0,0E0,0E0,0E0,0E0,0E0,0E0,0E0,0E0,0E0],"parents":[2147483647,0,0,1,1,2,2,3,3,4,4,5,5,6,6,7,7,8,8,9,9,10,10,11,11,12,12,13,13],"right_children":[2,4,6,8,10,12,14,16,18,20,22,24,26,28,-1,-1,-1,-1,-1,-1,-1,-1,-1,-1,-1,-1,-1,-1,-1],"split_conditions":[1.3747946E0,6.5147924E-1,1.7005683E0,-1.9696102E-1,8.976508E-1,1.6305647E0,1.2498302E0,-2.9143527E-1,1E0,1E0,8.495826E-1,4.352181E-1,5.3949344E-1,1E0,2.4259072E3,-6.553003E2,-3.370717E2,8.961513E1,-3.100272E2,1.8913441E2,-2.3865923E2,6.023327E2,1.1085981E3,3.6966156E2,8.706457E2,8.3549347E2,1.638507E3,1.6315637E3,9.8046466E2],"split_indices":[4,4,9,16,16,16,16,13,46,220,9,27,7,164,0,0,0,0,0,0,0,0,0,0,0,0,0,0,0],"split_type":[0,0,0,0,0,0,0,0,0,0,0,0,0,0,0,0,0,0,0,0,0,0,0,0,0,0,0,0,0],"sum_hessian":[9.22E2,7.74E2,1.48E2,5.67E2,2.07E2,1.09E2,3.9E1,3.66E2,2.01E2,1.72E2,3.5E1,8.6E1,2.3E1,2.7E1,1.2E1,2.3E2,1.36E2,8.6E1,1.15E2,1.47E2,2.5E1,2.5E1,1E1,3.4E1,5.2E1,6E0,1.7E1,1.9E1,8E0],"tree_param":{"num_deleted":"0","num_feature":"261","num_nodes":"29","size_leaf_vector":"1"}},{"base_weights":[-4.4824436E1,-1.6149104E4,1.13245664E5,-5.4414992E4,3.5504648E3,-3.1905592E4,1.2737346E5,-6.025317E4,-1.9625068E4,2.607342E4,-2.2423988E4,-5.429934E2,-4.1942444E1,1.6887958E5,8.504583E4,-6.884822E2,-4.2409174E2,-3.1828418E2,2.1388152E2,1.1933012E2,5.95373E2,-4.291422E2,-6.424984E1,1.0253735E3,1.8417781E3,6.7584656E2,1.4052789E3],"categories":[],"categories_nodes":[],"categories_segments":[],"categories_sizes":[],"default_left":[0,0,0,0,0,0,0,0,0,0,0,0,0,0,0,0,0,0,0,0,0,0,0,0,0,0,0],"id":2,"left_children":[1,3,5,7,9,11,13,15,17,19,21,-1,-1,23,25,-1,-1,-1,-1,-1,-1,-1,-1,-1,-1,-1,-1],"loss_changes":[1.685807E12,6.100348E11,2.398906E11,5.4672687E10,3.1357115E11,6.5984256E9,1.7010734E11,3.3122222E10,2.1201193E10,1.3509593E11,8.1352294E10,0E0,0E0,3.3890632E10,4.28167E10,0E0,0E0,0E0,0E0,0E0,0E0,0E0,0E0,0E0,0E0,0E0,0E0],"parents":[2147483647,0,0,1,1,2,2,3,3,4,4,5,5,6,6,7,7,8,8,9,9,10,10,13,13,14,14],"right_children":[2,4,6,8,10,12,14,16,18,20,22,-1,-1,24,26,-1,-1,-1,-1,-1,-1,-1,-1,-1,-1,-1,-1],"split_conditions":[1.6503069E0,3.1172463E-1,-3.8112345E-1,7.745735E-1,1E0,9.8535486E-2,1E0,-2.1303928E-1,1E0,7.306751E-1,6.004949E-1,-5.429934E2,-4.1942444E1,6.6865325E-2,1.6568342E0,-6.884822E2,-4.2409174E2,-3.1828418E2,2.1388152E2,1.1933012E2,5.95373E2,-4.291422E2,-6.424984E1,1.0253735E3,1.8417781E3,6.7584656E2,1.4052789E3],"split_indices":[26,26,7,14,204,3,164,12,62,13,24,0,0,3,14,0,0,0,0,0,0,0,0,0,0,0,0],"split_type":[0,0,0,0,0,0,0,0,0,0,0,0,0,0,0,0,0,0,0,0,0,0,0,0,0,0,0],"sum_hessian":[9.22E2,8.08E2,1.14E2,2.74E2,5.34E2,1E1,1.04E2,2.34E2,4E1,2.86E2,2.48E2,5E0,5E0,5.1E1,5.3E1,1.56E2,7.8E1,3.1E1,9E0,2.02E2,8.4E1,1.08E2,1.4E2,1.1E1,4E1,4.2E1,1.1E1],"tree_param":{"num_deleted":"0","num_feature":"261","num_nodes":"27","size_leaf_vector":"1"}},{"base_weights":[-8.389646E2,-2.2752967E4,1.1783032E5,-4.5610008E4,9.32919E3,8.605688E4,1.9025322E5,-5.741068E4,-1.752058E4,-9.222218E3,3.4836996E4,7.004436E4,1.540053E5,7.786194E2,2.0941206E5,-6.505238E2,-3.3785452E2,-3.000223E2,4.6046623E1,-2.952261E2,3.101343E1,2.4163777E2,7.316666E2,4.9237503E2,1.0196939E3,1.1262518E3,1.8746927E3,1.7946112E3,3.1213586E3],"categories":[],"categories_nodes":[],"categories_segments":[],"categories_sizes":[],"default_left":[0,0,0,0,0,0,0,0,0,0,0,0,0,0,0,0,0,0,0,0,0,0,0,0,0,0,0,0,0],"id":3,"left_children":[1,3,5,7,9,11,13,15,17,19,21,23,25,-1,27,-1,-1,-1,-1,-1,-1,-1,-1,-1,-1,-1,-1,-1,-1],"loss_changes":[2.4523702E12,5.841347E11,3.2189278E11,1.5312978E11,1.5742558E11,1.02367494E11,7.843938E10,5.6837734E10,3.852433E10,4.8374977E10,5.550614E10,5.210561E10,5.1963167E9,0E0,5.7820578E10,0E0,0E0,0E0,0E0,0E0,0E0,0E0,0E0,0E0,0E0,0E0,0E0,0E0,0E0],"parents":[2147483647,0,0,1,1,2,2,3,3,4,4,5,5,6,6,7,7,8,8,9,9,10,10,11,11,12,12,14,14],"right_children":[2,4,6,8,10,12,14,16,18,20,22,24,26,-1,28,-1,-1,-1,-1,-1,-1,-1,-1,-1,-1,-1,-1,-1,-1],"split_conditions":[1.3747946E0,-8.6548E-2,2.09811E0,-2.4910286E-2,6.5147924E-1,1.7733402E0,1.6503069E0,9.0492226E-2,2.892167E-1,-7.1836114E-2,1.1013438E0,7.2456664E-1,7.5913894E-1,7.786194E2,2.2473547E0,-6.505238E2,-3.3785452E2,-3.000223E2,4.6046623E1,-2.952261E2,3.101343E1,2.4163777E2,7.316666E2,4.9237503E2,1.0196939E3,1.1262518E3,1.8746927E3,1.7946112E3,3.1213586E3],"split_indices":[4,16,4,13,4,16,26,6,6,4,16,9,13,0,16,0,0,0,0,0,0,0,0,0,0,0,0,0,0],"split_type":[0,0,0,0,0,0,0,0,0,0,0,0,0,0,0,0,0,0,0,0,0,0,0,0,0,0,0,0,0],"sum_hessian":[9.41E2,7.95E2,1.46E2,4.64E2,3.31E2,1.03E2,4.3E1,3.26E2,1.38E2,1.92E2,1.39E2,8.5E1,1.8E1,7E0,3.6E1,2.45E2,8.1E1,8.8E1,5E1,7.2E1,1.2E2,1.1E2,2.9E1,5.3E1,3.2E1,1E1,8E0,3E1,6E0],"tree_param":{"num_deleted":"0","num_feature":"261","num_nodes":"29","size_leaf_vector":"1"}},{"base_weights":[1.7651315E2,-2.1377973E4,1.1707843E5,-3.7264867E4,2.3147408E4,8.379519E4,1.8843945E5,-5.7725414E4,-2.1172941E4,1.6723549E4,7.8942195E4,7.043888E4,1.4951334E5,9.8388403E2,2.0243864E5,-6.7261816E2,-4.0305585E2,-3.974403E2,-4.5302094E1,8.805573E1,4.733025E2,9.8201117E2,4.2352405E2,4.2590833E2,8.816914E2,7.9034753E2,1.7436409E3,1.6144788E3,2.390146E3],"categories":[],"categories_nodes":[],"categories_segments":[],"categories_sizes":[],"default_left":[0,0,0,0,0,0,0,0,0,0,0,0,0,0,0,0,0,0,0,0,0,0,0,0,0,0,0,0,0],"id":4,"left_children":[1,3,5,7,9,11,13,15,17,19,21,23,25,-1,27,-1,-1,-1,-1,-1,-1,-1,-1,-1,-1,-1,-1,-1,-1],"loss_changes":[2.3307616E12,5.5331855E11,3.2622785E11,1.884255E11,7.25139E10,7.724355E10,3.681131E10,3.9317996E10,9.995982E10,4.4659044E10,1.0639221E10,3.8213812E10,1.4242284E10,0E0,1.8384028E10,0E0,0E0,0E0,0E0,0E0,0E0,0E0,0E0,0E0,0E0,0E0,0E0,0E0,0E0],"parents":[2147483647,0,0,1,1,2,2,3,3,4,4,5,5,6,6,7,7,8,8,9,9,10,10,11,11,12,12,14,14],"right_children":[2,4,6,8,10,12,14,16,18,20,22,24,26,-1,28,-1,-1,-1,-1,-1,-1,-1,-1,-1,-1,-1,-1,-1,-1],"split_conditions":[1.3747946E0,6.5147924E-1,2.09811E0,3.1172463E-1,1.1281269E0,1.1473283E0,1.6503069E0,-3.6388868E-1,-7.1836114E-2,1.2305992E0,1E0,5.147571E-1,4.9103993E-1,9.8388403E2,1.5066553E0,-6.7261816E2,-4.0305585E2,-3.974403E2,-4.5302094E1,8.805573E1,4.733025E2,9.8201117E2,4.2352405E2,4.2590833E2,8.816914E2,7.9034753E2,1.7436409E3,1.6144788E3,2.390146E3],"split_indices":[4,4,4,26,9,28,26,13,4,14,173,27,7,0,27,0,0,0,0,0,0,0,0,0,0,0,0,0,0],"split_type":[0,0,0,0,0,0,0,0,0,0,0,0,0,0,0,0,0,0,0,0,0,0,0,0,0,0,0,0,0],"sum_hessian":[9.23E2,7.8E2,1.43E2,5.75E2,2.05E2,9.9E1,4.4E1,2.52E2,3.23E2,1.85E2,2E1,8.4E1,1.5E1,7E0,3.7E1,1.61E2,9.1E1,1.52E2,1.71E2,1.48E2,3.7E1,1.2E1,8E0,3.4E1,5E1,5E0,1E1,2E1,1.7E1],"tree_param":{"num_deleted":"0","num_feature":"261","num_nodes":"29","size_leaf_vector":"1"}},{"base_weights":[-1.2208176E3,-2.11178E4,1.1190833E5,-3.77416E4,2.471412E4,9.001851E4,1.9859797E5,-5.320233E4,-1.3699108E4,8.353841E3,5.7545875E4,7.707963E4,1.7200164E5,8.727169E2,2.1900492E5,-6.6484937E2,-3.4744202E2,-3.360963E2,-6.54507E0,-2.0150478E2,1.6531812E2,3.875209E2,8.7433594E2,1.6715352E2,8.5709076E2,1.2250847E3,2.2582332E3,1.7117612E3,2.6406472E3],"categories":[],"categories_nodes":[],"categories_segments":[],"categories_sizes":[],"default_left":[0,0,0,0,0,0,0,0,0,0,0,0,0,0,0,0,0,0,0,0,0,0,0,0,0,0,0,0,0],"id":5,"left_children":[1,3,5,7,9,11,13,15,17,19,21,23,25,-1,27,-1,-1,-1,-1,-1,-1,-1,-1,-1,-1,-1,-1,-1,-1],"loss_changes":[2.152E12,6.20358E11,2.5348224E11,2.2118472E11,1.1607792E11,1.0979141E11,4.449842E10,8.668742E10,6.1013352E10,3.436682E10,3.7054382E10,5.170017E10,1.2291801E10,0E0,4.367057E9,0E0,0E0,0E0,0E0,0E0,0E0,0E0,0E0,0E0,0E0,0E0,0E0,0E0,0E0],"parents":[2147483647,0,0,1,1,2,2,3,3,4,4,5,5,6,6,7,7,8,8,9,9,10,10,11,11,12,12,14,14],"right_children":[2,4,6,8,10,12,14,16,18,20,22,24,26,-1,28,-1,-1,-1,-1,-1,-1,-1,-1,-1,-1,-1,-1,-1,-1],"split_conditions":[1.3747946E0,6.5147924E-1,1.779869E0,-2.540712E-1,5.873521E-1,2.143103E0,1.6503069E0,-2.723249E-1,-7.1836114E-2,1E0,3.159707E-1,9.293437E-5,7.674534E-1,8.727169E2,1.1451283E0,-6.6484937E2,-3.4744202E2,-3.360963E2,-6.54507E0,-2.0150478E2,1.6531812E2,3.875209E2,8.7433594E2,1.6715352E2,8.5709076E2,1.2250847E3,2.2582332E3,1.7117612E3,2.6406472E3],"split_indices":[4,4,12,16,16,23,26,12,4,216,12,27,12,0,16,0,0,0,0,0,0,0,0,0,0,0,0,0,0],"split_type":[0,0,0,0,0,0,0,0,0,0,0,0,0,0,0,0,0,0,0,0,0,0,0,0,0,0,0,0,0],"sum_hessian":[9.54E2,8.12E2,1.42E2,5.96E2,2.16E2,1.15E2,2.7E1,3.62E2,2.34E2,1.45E2,7.1E1,1.01E2,1.4E1,5E0,2.2E1,2.09E2,1.53E2,9.2E1,1.42E2,3.2E1,1.13E2,4.5E1,2.6E1,1.3E1,8.8E1,9E0,5E0,1.3E1,9E0],"tree_param":{"num_deleted":"0","num_feature":"261","num_nodes":"29","size_leaf_vector":"1"}},{"base_weights":[-2.2860829E2,-2.1854146E4,1.1374537E5,-4.3916457E4,1.0507891E4,7.789807E4,1.6802742E5,-5.490387E4,-1.8357318E4,-9.725531E3,3.6823168E4,5.51001E4,1.1629752E5,1.09033945E5,2.0105027E5,-6.9349524E2,-4.0210004E2,-3.194127E2,5.1336846E0,-2.3838382E2,1.1774836E2,2.2312709E2,7.582975E2,1.473144E2,6.618839E2,8.743764E2,1.4149629E3,1.2821746E3,3.3311053E2,2.2044436E3,6.733898E2],"categories":[],"categories_nodes":[],"categories_segments":[],"categories_sizes":[],"default_left":[0,0,0,0,0,0,0,0,0,0,0,0,0,0,0,0,0,0,0,0,0,0,0,0,0,0,0,0,0,0,0],"id":6,"left_children":[1,3,5,7,9,11,13,15,17,19,21,23,25,27,29,-1,-1,-1,-1,-1,-1,-1,-1,-1,-1,-1,-1,-1,-1,-1,-1],"loss_changes":[2.2873078E12,5.573669E11,2.7489888E11,1.29296695E11,1.6914416E11,7.325614E10,9.10704E10,6.598453E10,3.616012E10,5.489836E10,7.64165E10,2.5434472E10,1.1626611E10,2.9139485E10,7.851121E10,0E0,0E0,0E0,0E0,0E0,0E0,0E0,0E0,0E0,0E0,0E0,0E0,0E0,0E0,0E0,0E0],"parents":[2147483647,0,0,1,1,2,2,3,3,4,4,5,5,6,6,7,7,8,8,9,9,10,10,11,11,12,12,13,13,14,14],"right_children":[2,4,6,8,10,12,14,16,18,20,22,24,26,28,30,-1,-1,-1,-1,-1,-1,-1,-1,-1,-1,-1,-1,-1,-1,-1,-1],"split_conditions":[1.3747946E0,-5.9896585E-2,1.3542918E0,9.0492226E-2,6.5147924E-1,9.223985E-1,6.368476E-1,-4.365004E-1,-4.8198875E-2,9.563223E-3,9.890271E-1,-9.797004E-2,1.0509938E0,2.5870936E0,1.8923965E0,-6.9349524E2,-4.0210004E2,-3.194127E2,5.1336846E0,-2.3838382E2,1.1774836E2,2.2312709E2,7.582975E2,1.473144E2,6.618839E2,8.743764E2,1.4149629E3,1.2821746E3,3.3311053E2,2.2044436E3,6.733898E2],"split_indices":[4,16,13,6,4,16,16,12,13,9,16,16,6,11,29,0,0,0,0,0,0,0,0,0,0,0,0,0,0,0,0],"split_type":[0,0,0,0,0,0,0,0,0,0,0,0,0,0,0,0,0,0,0,0,0,0,0,0,0,0,0,0,0,0,0],"sum_hessian":[9.26E2,7.79E2,1.47E2,4.63E2,3.16E2,9E1,5.7E1,3.23E2,1.4E2,1.79E2,1.37E2,5.8E1,3.2E1,2.2E1,3.5E1,1.61E2,1.62E2,8.1E1,5.9E1,1.08E2,7.1E1,1.01E2,3.6E1,1.3E1,4.5E1,1.7E1,1.5E1,1.7E1,5E0,3E1,5E0],"tree_param":{"num_deleted":"0","num_feature":"261","num_nodes":"31","size_leaf_vector":"1"}},{"base_weights":[1.2367643E3,-3.6948133E4,4.7794203E4,-5.057288E4,8.370286E2,2.0224092E4,1.1068536E5,-6.1843043E4,-3.146189E4,-1.6594777E4,2.6658508E4,4.3116336E4,-8.1560005E3,1.2136331E5,6.0695254E3,-8.7593915E2,-5.5385095E2,-4.3802246E2,-2.1196332E2,-3.4884332E2,-7.153664E1,1.2822728E2,3.8222092E2,1.6826332E2,6.735262E2,-1.413057E2,5.326512E2,7.919388E2,1.562515E3,-1.8894867E2,2.4034128E2],"categories":[],"categories_nodes":[],"categories_segments":[],"categories_sizes":[],"default_left":[0,0,0,0,0,0,0,0,0,0,0,0,0,0,0,0,0,0,0,0,0,0,0,0,0,0,0,0,0,0,0],"id":7,"left_children":[1,3,5,7,9,11,13,15,17,19,21,23,25,27,29,-1,-1,-1,-1,-1,-1,-1,-1,-1,-1,-1,-1,-1,-1,-1,-1],"loss_changes":[1.6728895E12,2.6620081E11,7.329419E11,7.990018E10,6.255826E10,1.9265811E11,1.4336708E11,3.4727395E10,1.7186882E10,1.4082367E10,8.4693975E9,1.0336292E11,4.9558974E10,1.5975816E11,6.284302E9,0E0,0E0,0E0,0E0,0E0,0E0,0E0,0E0,0E0,0E0,0E0,0E0,0E0,0E0,0E0,0E0],"parents":[2147483647,0,0,1,1,2,2,3,3,4,4,5,5,6,6,7,7,8,8,9,9,10,10,11,11,12,12,13,13,14,14],"right_children":[2,4,6,8,10,12,14,16,18,20,22,24,26,28,30,-1,-1,-1,-1,-1,-1,-1,-1,-1,-1,-1,-1,-1,-1,-1,-1],"split_conditions":[4.861276E-2,4.2169967E-1,9.030946E-1,-2.8626004E-1,2.7266616E-1,1E0,1E0,1E0,6.004949E-1,-7.0333797E-1,-1.8934633E-1,9.659271E-4,1E0,8.652883E-1,9.585683E-1,-8.7593915E2,-5.5385095E2,-4.3802246E2,-2.1196332E2,-3.4884332E2,-7.153664E1,1.2822728E2,3.8222092E2,1.6826332E2,6.735262E2,-1.413057E2,5.326512E2,7.919388E2,1.562515E3,-1.8894867E2,2.4034128E2],"split_indices":[16,6,27,13,13,204,204,196,24,16,16,13,121,16,16,0,0,0,0,0,0,0,0,0,0,0,0,0,0,0,0],"split_type":[0,0,0,0,0,0,0,0,0,0,0,0,0,0,0,0,0,0,0,0,0,0,0,0,0,0,0,0,0,0,0],"sum_hessian":[9.39E2,5.16E2,4.23E2,3.79E2,1.37E2,2.95E2,1.28E2,2.37E2,1.42E2,8.2E1,5.5E1,1.63E2,1.32E2,1.16E2,1.2E1,4.5E1,1.92E2,6.3E1,7.9E1,2.7E1,5.5E1,2.6E1,2.9E1,7.9E1,8.4E1,1.21E2,1.1E1,5.4E1,6.2E1,5E0,7E0],"tree_param":{"num_deleted":"0","num_feature":"261","num_nodes":"31","size_leaf_vector":"1"}},{"base_weights":[2.1790142E3,5.3738457E4,-3.1494463E4,2.2657773E4,1.2340072E5,-5.401386E4,-1.663176E4,1.0924341E4,8.190294E4,1.7950697E5,8.768284E4,-5.9768727E4,-2.1394309E4,-2.0434398E4,6.1648824E4,-2.7000214E2,2.3264322E2,5.752356E2,1.179242E3,1.5076365E3,2.4941812E3,6.2647614E2,1.3409984E3,-6.606221E2,-4.095161E2,-3.361879E2,-6.562466E0,-5.45214E1,-3.7035135E2,2.7384836E2,9.2489703E2],"categories":[],"categories_nodes":[],"categories_segments":[],"categories_sizes":[],"default_left":[0,0,0,0,0,0,0,0,0,0,0,0,0,0,0,0,0,0,0,0,0,0,0,0,0,0,0,0,0,0,0],"id":8,"left_children":[1,3,5,7,9,11,13,15,17,19,21,23,25,27,29,-1,-1,-1,-1,-1,-1,-1,-1,-1,-1,-1,-1,-1,-1,-1,-1],"loss_changes":[1.6128728E12,7.918142E11,1.8720247E11,1.7636829E11,2.10712E11,4.0583234E10,1.024685E11,1.0077764E11,3.0099964E10,4.8804397E10,7.410526E10,1.9676987E10,8.850858E9,8.0630964E10,1.4374887E10,0E0,0E0,0E0,0E0,0E0,0E0,0E0,0E0,0E0,0E0,0E0,0E0,0E0,0E0,0E0,0E0],"parents":[2147483647,0,0,1,1,2,2,3,3,4,4,5,5,6,6,7,7,8,8,9,9,10,10,11,11,12,12,13,13,14,14],"right_children":[2,4,6,8,10,12,14,16,18,20,22,24,26,28,30,-1,-1,-1,-1,-1,-1,-1,-1,-1,-1,-1,-1,-1,-1,-1,-1],"split_conditions":[1E0,9.030946E-1,-4.5842606E-1,1.0272368E0,1E0,7.539492E-1,1.6132941E0,-4.478149E-1,1.2663127E0,1.3900228E0,6.4999574E-1,-1.08149365E-1,-3.9838353E-1,1E0,5.159026E-1,-2.7000214E2,2.3264322E2,5.752356E2,1.179242E3,1.5076365E3,2.4941812E3,6.2647614E2,1.3409984E3,-6.606221E2,-4.095161E2,-3.361879E2,-6.562466E0,-5.45214E1,-3.7035135E2,2.7384836E2,9.2489703E2],"split_indices":[153,27,27,9,203,14,14,29,13,21,9,12,9,215,13,0,0,0,0,0,0,0,0,0,0,0,0,0,0,0,0],"split_type":[0,0,0,0,0,0,0,0,0,0,0,0,0,0,0,0,0,0,0,0,0,0,0,0,0,0,0,0,0,0,0],"sum_hessian":[9.27E2,3.66E2,5.61E2,2.54E2,1.12E2,2.22E2,3.39E2,2.13E2,4.1E1,4.2E1,7E1,1.88E2,3.4E1,3.24E2,1.5E1,5.2E1,1.61E2,2.6E1,1.5E1,3.2E1,1E1,4.7E1,2.3E1,1.39E2,4.9E1,2.1E1,1.3E1,1.71E2,1.53E2,8E0,7E0],"tree_param":{"num_deleted":"0","num_feature":"261","num_nodes":"31","size_leaf_vector":"1"}},{"base_weights":[-1.1229153E3,-2.1724492E4,1.1552862E5,-3.7060914E4,2.2286275E4,8.974988E4,1.89564E5,-5.201921E4,-1.414135E4,6.509413E3,4.567978E4,7.080925E4,1.4457684E5,8.300162E2,2.0874927E5,-6.3236176E2,-3.0794034E2,-3.958979E2,-4.2110527E1,1.3115346E2,-2.4413979E2,3.7109467E2,9.2580817E2,5.0767975E2,1.025191E3,8.061248E2,1.5973552E3,1.5372255E3,2.567263E3],"categories":[],"categories_nodes":[],"categories_segments":[],"categories_sizes":[],"default_left":[0,0,0,0,0,0,0,0,0,0,0,0,0,0,0,0,0,0,0,0,0,0,0,0,0,0,0,0,0],"id":9,"left_children":[1,3,5,7,9,11,13,15,17,19,21,23,25,-1,27,-1,-1,-1,-1,-1,-1,-1,-1,-1,-1,-1,-1,-1,-1],"loss_changes":[2.225475E12,5.3202557E11,2.4827344E11,1.9948156E11,7.499418E10,9.880063E10,5.422855E10,8.209577E10,5.8462126E10,2.5446375E10,2.952482E10,4.5635797E10,1.2333384E10,0E0,3.7095997E10,0E0,0E0,0E0,0E0,0E0,0E0,0E0,0E0,0E0,0E0,0E0,0E0,0E0,0E0],"parents":[2147483647,0,0,1,1,2,2,3,3,4,4,5,5,6,6,7,7,8,8,9,9,10,10,11,11,12,12,14,14],"right_children":[2,4,6,8,10,12,14,16,18,20,22,24,26,-1,28,-1,-1,-1,-1,-1,-1,-1,-1,-1,-1,-1,-1,-1,-1],"split_conditions":[1.3747946E0,6.5147924E-1,1.779869E0,-2.673969E-1,4.0459955E-1,1.4763672E0,1E0,-1.3323174E-1,3.1172463E-1,1E0,1.0798751E0,8.035241E-1,5.8794695E-1,8.300162E2,1.1451283E0,-6.3236176E2,-3.0794034E2,-3.958979E2,-4.2110527E1,1.3115346E2,-2.4413979E2,3.7109467E2,9.2580817E2,5.0767975E2,1.025191E3,8.061248E2,1.5973552E3,1.5372255E3,2.567263E3],"split_indices":[4,4,12,16,16,16,82,12,26,220,9,9,7,0,16,0,0,0,0,0,0,0,0,0,0,0,0,0,0],"split_type":[0,0,0,0,0,0,0,0,0,0,0,0,0,0,0,0,0,0,0,0,0,0,0,0,0,0,0,0,0],"sum_hessian":[9.24E2,7.86E2,1.38E2,5.83E2,2.03E2,1.04E2,3.4E1,3.52E2,2.31E2,1.22E2,8.1E1,7.9E1,2.5E1,6E0,2.8E1,2.29E2,1.23E2,6.4E1,1.67E2,1.01E2,2.1E1,7E1,1.1E1,5E1,2.9E1,6E0,1.9E1,1.5E1,1.3E1],"tree_param":{"num_deleted":"0","num_feature":"261","num_nodes":"29","size_leaf_vector":"1"}},{"base_weights":[-5.459346E2,-2.1766934E4,1.1090306E5,-4.4197793E4,9.031667E3,8.148864E4,1.8530028E5,-5.737712E4,-2.2876057E4,-8.988523E3,3.1586994E4,6.046995E4,1.1675961E5,7.602161E2,1.9801303E5,-6.349393E2,-3.2010593E2,-3.2334296E2,-1.3726562E0,-2.1626852E2,8.18558E1,1.7613992E2,6.796432E2,3.552123E2,7.68507E2,9.1760443E2,1.5230751E3,1.4892498E3,2.3229163E3],"categories":[],"categories_nodes":[],"categories_segments":[],"categories_sizes":[],"default_left":[0,0,0,0,0,0,0,0,0,0,0,0,0,0,0,0,0,0,0,0,0,0,0,0,0,0,0,0,0],"id":10,"left_children":[1,3,5,7,9,11,13,15,17,19,21,23,25,-1,27,-1,-1,-1,-1,-1,-1,-1,-1,-1,-1,-1,-1,-1,-1],"loss_changes":[2.2326647E12,5.482346E11,3.1534128E11,1.2766924E11,1.364451E11,7.4487955E10,4.3294523E10,4.187842E10,3.806276E10,4.076575E10,7.453965E10,2.6286359E10,2.1570847E10,0E0,2.7664712E10,0E0,0E0,0E0,0E0,0E0,0E0,0E0,0E0,0E0,0E0,0E0,0E0,0E0,0E0],"parents":[2147483647,0,0,1,1,2,2,3,3,4,4,5,5,6,6,7,7,8,8,9,9,10,10,11,11,12,12,14,14],"right_children":[2,4,6,8,10,12,14,16,18,20,22,24,26,-1,28,-1,-1,-1,-1,-1,-1,-1,-1,-1,-1,-1,-1,-1,-1],"split_conditions":[1.3747946E0,-9.797004E-2,2.09811E0,-1.08149365E-1,6.5147924E-1,9.890271E-1,1.6503069E0,1.567337E-1,4.548204E-1,9.563223E-3,9.890271E-1,8.198983E-1,7.5913894E-1,7.602161E2,1.2955184E0,-6.349393E2,-3.2010593E2,-3.2334296E2,-1.3726562E0,-2.1626852E2,8.18558E1,1.7613992E2,6.796432E2,3.552123E2,7.68507E2,9.1760443E2,1.5230751E3,1.4892498E3,2.3229163E3],"split_indices":[4,16,4,12,4,16,26,6,6,9,16,12,13,0,16,0,0,0,0,0,0,0,0,0,0,0,0,0,0],"split_type":[0,0,0,0,0,0,0,0,0,0,0,0,0,0,0,0,0,0,0,0,0,0,0,0,0,0,0,0,0],"sum_hessian":[9.42E2,7.92E2,1.5E2,4.58E2,3.34E2,1.09E2,4.1E1,2.82E2,1.76E2,1.86E2,1.48E2,7E1,3.9E1,5E0,3.6E1,2.26E2,5.6E1,1.24E2,5.2E1,1.07E2,7.9E1,1.08E2,4E1,2.9E1,4.1E1,2.5E1,1.4E1,1.7E1,1.9E1],"tree_param":{"num_deleted":"0","num_feature":"261","num_nodes":"29","size_leaf_vector":"1"}},{"base_weights":[-1.6388671E3,-2.0830379E4,1.03858016E5,-4.9617098E4,4.0376147E2,8.0373516E4,1.6769623E5,-6.13951E4,-3.3477664E4,-2.3748623E4,2.041409E4,5.8687805E4,1.1150476E5,2.0533312E5,1.2543822E3,-7.695077E2,-5.242254E2,-4.4381503E2,-1.8868228E2,-3.7852527E2,-4.887244E1,8.996129E1,4.7723962E2,3.464193E1,6.885025E2,6.9112134E2,1.2615806E3,1.3921E3,2.5598848E3],"categories":[],"categories_nodes":[],"categories_segments":[],"categories_sizes":[],"default_left":[0,0,0,0,0,0,0,0,0,0,0,0,0,0,0,0,0,0,0,0,0,0,0,0,0,0,0,0,0],"id":11,"left_children":[1,3,5,7,9,11,13,15,17,19,21,23,25,27,-1,-1,-1,-1,-1,-1,-1,-1,-1,-1,-1,-1,-1,-1,-1],"loss_changes":[1.8547132E12,4.7374752E11,1.9791007E11,6.048429E10,2.1651862E11,6.434187E10,3.3090437E10,2.2345613E10,2.162375E10,5.3816885E10,7.596734E10,3.5678732E10,1.7371038E10,2.4654709E10,0E0,0E0,0E0,0E0,0E0,0E0,0E0,0E0,0E0,0E0,0E0,0E0,0E0,0E0,0E0],"parents":[2147483647,0,0,1,1,2,2,3,3,4,4,5,5,6,6,7,7,8,8,9,9,10,10,11,11,12,12,13,13],"right_children":[2,4,6,8,10,12,14,16,18,20,22,24,26,28,-1,-1,-1,-1,-1,-1,-1,-1,-1,-1,-1,-1,-1,-1,-1],"split_conditions":[1.3747946E0,-7.1836114E-2,2.09811E0,-2.8626004E-1,-4.0859856E-2,5.0085396E-1,7.801972E-1,-7.951515E-1,6.004949E-1,-4.8198875E-2,8.843251E-1,-2.7278712E-1,2.2184697E-1,3.0078354E-1,1.2543822E3,-7.695077E2,-5.242254E2,-4.4381503E2,-1.8868228E2,-3.7852527E2,-4.887244E1,8.996129E1,4.7723962E2,3.464193E1,6.885025E2,6.9112134E2,1.2615806E3,1.3921E3,2.5598848E3],"split_indices":[4,4,4,13,16,9,28,4,24,13,16,3,16,3,0,0,0,0,0,0,0,0,0,0,0,0,0,0,0],"split_type":[0,0,0,0,0,0,0,0,0,0,0,0,0,0,0,0,0,0,0,0,0,0,0,0,0,0,0,0,0],"sum_hessian":[9.14E2,7.74E2,1.4E2,3.28E2,4.46E2,1.04E2,3.6E1,1.88E2,1.4E2,2.02E2,2.44E2,6.3E1,4.1E1,1.7E1,1.9E1,6.6E1,1.22E2,7.9E1,6.1E1,1.15E2,8.7E1,1.73E2,7.1E1,1E1,5.3E1,1.2E1,2.9E1,9E0,8E0],"tree_param":{"num_deleted":"0","num_feature":"261","num_nodes":"29","size_leaf_vector":"1"}},{"base_weights":[6.985145E2,-1.9755014E4,1.0927598E5,-4.891816E4,1.8883618E3,8.246542E4,1.7788756E5,-5.832812E4,-2.9999312E4,-1.1929579E4,4.012904E4,5.6884586E4,1.2191855E5,6.918293E2,1.9454598E5,-7.563528E2,-4.9108838E2,-3.3917453E2,6.1313335E1,-2.9280878E2,6.1249756E1,1.8204095E2,6.6107983E2,6.927873E1,6.537836E2,8.3244617E2,1.4251617E3,1.4648032E3,2.3180352E3],"categories":[],"categories_nodes":[],"categories_segments":[],"categories_sizes":[],"default_left":[0,0,0,0,0,0,0,0,0,0,0,0,0,0,0,0,0,0,0,0,0,0,0,0,0,0,0,0,0],"id":12,"left_children":[1,3,5,7,9,11,13,15,17,19,21,23,25,-1,27,-1,-1,-1,-1,-1,-1,-1,-1,-1,-1,-1,-1,-1,-1],"loss_changes":[2.0874827E12,4.9936282E11,2.594181E11,5.8244858E10,2.409041E11,1.0307233E11,6.0785558E10,3.2026919E10,1.634635E10,1.0512477E11,6.771658E10,2.840091E10,2.1593063E10,0E0,2.8723511E10,0E0,0E0,0E0,0E0,0E0,0E0,0E0,0E0,0E0,0E0,0E0,0E0,0E0,0E0],"parents":[2147483647,0,0,1,1,2,2,3,3,4,4,5,5,6,6,7,7,8,8,9,9,10,10,11,11,12,12,14,14],"right_children":[2,4,6,8,10,12,14,16,18,20,22,24,26,-1,28,-1,-1,-1,-1,-1,-1,-1,-1,-1,-1,-1,-1,-1,-1],"split_conditions":[1.3747946E0,-7.1836114E-2,2.09811E0,-1.08149365E-1,5.41664E-1,8.462516E-1,1.6503069E0,-7.951515E-1,7.4196094E-1,4.548204E-1,1.270205E-2,-9.797004E-2,1.6503069E0,6.918293E2,1.2955184E0,-7.563528E2,-4.9108838E2,-3.3917453E2,6.1313335E1,-2.9280878E2,6.1249756E1,1.8204095E2,6.6107983E2,6.927873E1,6.537836E2,8.3244617E2,1.4251617E3,1.4648032E3,2.3180352E3],"split_indices":[4,4,4,12,16,16,26,4,3,6,12,16,26,0,16,0,0,0,0,0,0,0,0,0,0,0,0,0,0],"split_type":[0,0,0,0,0,0,0,0,0,0,0,0,0,0,0,0,0,0,0,0,0,0,0,0,0,0,0,0,0],"sum_hessian":[9.38E2,7.9E2,1.48E2,3.36E2,4.54E2,1.08E2,4E1,2.23E2,1.13E2,3.34E2,1.2E2,6.7E1,4.1E1,6E0,3.4E1,7.5E1,1.48E2,1.02E2,1.1E1,1.7E2,1.64E2,6.6E1,5.4E1,1E1,5.7E1,1.6E1,2.5E1,1.7E1,1.7E1],"tree_param":{"num_deleted":"0","num_feature":"261","num_nodes":"29","size_leaf_vector":"1"}},{"base_weights":[-2.4401663E3,-2.0377598E4,1.0190505E5,-3.5211684E4,2.2479367E4,7.854302E4,1.6968102E5,-5.415939E4,-1.9498676E4,9.087701E3,4.9129055E4,5.5482277E4,1.1206214E5,6.027455E2,1.8646577E5,-7.4355945E2,-4.7258237E2,-3.689173E2,-4.761912E1,2.1414171E1,3.7308066E2,2.0094728E2,6.257819E2,3.570265E2,8.41192E2,6.530706E2,1.3143746E3,1.9934568E3,1.0386849E3],"categories":[],"categories_nodes":[],"categories_segments":[],"categories_sizes":[],"default_left":[0,0,0,0,0,0,0,0,0,0,0,0,0,0,0,0,0,0,0,0,0,0,0,0,0,0,0,0,0],"id":13,"left_children":[1,3,5,7,9,11,13,15,17,19,21,23,25,-1,27,-1,-1,-1,-1,-1,-1,-1,-1,-1,-1,-1,-1,-1,-1],"loss_changes":[1.735257E12,5.0366503E11,2.0201288E11,1.7400653E11,7.235782E10,7.3399075E10,5.119705E10,3.3561051E10,8.261481E10,2.677576E10,2.5295585E10,3.2681656E10,2.8557902E10,0E0,1.0145825E10,0E0,0E0,0E0,0E0,0E0,0E0,0E0,0E0,0E0,0E0,0E0,0E0,0E0,0E0],"parents":[2147483647,0,0,1,1,2,2,3,3,4,4,5,5,6,6,7,7,8,8,9,9,10,10,11,11,12,12,14,14],"right_children":[2,4,6,8,10,12,14,16,18,20,22,24,26,-1,28,-1,-1,-1,-1,-1,-1,-1,-1,-1,-1,-1,-1,-1,-1],"split_conditions":[1.3747946E0,6.5147924E-1,2.09811E0,3.1172463E-1,5.873521E-1,7.2456664E-1,1.6503069E0,-8.514996E-1,-7.1836114E-2,9.2022777E-1,-2.768853E-1,8.2340753E-1,2.6753512E-1,6.027455E2,1.3337654E0,-7.4355945E2,-4.7258237E2,-3.689173E2,-4.761912E1,2.1414171E1,3.7308066E2,2.0094728E2,6.257819E2,3.570265E2,8.41192E2,6.530706E2,1.3143746E3,1.9934568E3,1.0386849E3],"split_indices":[4,4,4,26,16,9,26,12,4,12,12,16,16,0,29,0,0,0,0,0,0,0,0,0,0,0,0,0,0],"split_type":[0,0,0,0,0,0,0,0,0,0,0,0,0,0,0,0,0,0,0,0,0,0,0,0,0,0,0,0,0],"sum_hessian":[9.25E2,7.9E2,1.35E2,5.87E2,2.03E2,1.02E2,3.3E1,2.65E2,3.22E2,1.36E2,6.7E1,6.2E1,4E1,5E0,2.8E1,6.5E1,2E2,1.47E2,1.75E2,1.1E2,2.6E1,2.2E1,4.5E1,3.8E1,2.4E1,1.3E1,2.7E1,2.3E1,5E0],"tree_param":{"num_deleted":"0","num_feature":"261","num_nodes":"29","size_leaf_vector":"1"}},{"base_weights":[4.3188132E2,-1.5475358E4,1.08036055E5,-4.2567473E4,1.3606614E4,8.264156E4,2.2260836E5,-5.107826E4,-1.1516981E4,3.6753504E4,-6.094333E3,-2.3681764E4,9.7579055E4,1.7590424E3,2.908874E3,-6.8859973E2,-4.149495E2,-2.9008E2,7.007349E1,6.719825E1,5.3409467E2,-1.06384285E2,5.399108E2,-4.6663483E2,1.0907487E2,7.264651E2,1.4752095E3],"categories":[],"categories_nodes":[],"categories_segments":[],"categories_sizes":[],"default_left":[0,0,0,0,0,0,0,0,0,0,0,0,0,0,0,0,0,0,0,0,0,0,0,0,0,0,0],"id":14,"left_children":[1,3,5,7,9,11,13,15,17,19,21,23,25,-1,-1,-1,-1,-1,-1,-1,-1,-1,-1,-1,-1,-1,-1],"loss_changes":[1.5815576E12,6.348325E11,3.2783427E11,1.0960975E11,1.7761406E11,1.5954307E11,1.5798895E10,5.2866056E10,2.9688127E10,8.918401E10,5.8184524E10,1.0842947E10,9.761364E10,0E0,0E0,0E0,0E0,0E0,0E0,0E0,0E0,0E0,0E0,0E0,0E0,0E0,0E0],"parents":[2147483647,0,0,1,1,2,2,3,3,4,4,5,5,6,6,7,7,8,8,9,9,10,10,11,11,12,12],"right_children":[2,4,6,8,10,12,14,16,18,20,22,24,26,-1,-1,-1,-1,-1,-1,-1,-1,-1,-1,-1,-1,-1,-1],"split_conditions":[1.6503069E0,-1.9315366E-1,1.7935503E0,2.1564122E-1,1E0,-3.8112345E-1,4.351813E-1,-8.6547863E-1,1.713128E-2,-2.966105E-1,1.6182292E0,-3.479385E-1,1.4763672E0,1.7590424E3,2.908874E3,-6.8859973E2,-4.149495E2,-2.9008E2,7.007349E1,6.719825E1,5.3409467E2,-1.06384285E2,5.399108E2,-4.6663483E2,1.0907487E2,7.264651E2,1.4752095E3],"split_indices":[26,16,12,12,153,7,3,27,25,13,13,9,16,0,0,0,0,0,0,0,0,0,0,0,0,0,0],"split_type":[0,0,0,0,0,0,0,0,0,0,0,0,0,0,0,0,0,0,0,0,0,0,0,0,0,0,0],"sum_hessian":[9.22E2,8.04E2,1.18E2,4.16E2,3.88E2,9.8E1,2E1,3.26E2,9E1,1.78E2,2.1E2,1.2E1,8.6E1,1.4E1,6E0,1.12E2,2.14E2,4.6E1,4.4E1,6.4E1,1.14E2,1.96E2,1.4E1,7E0,5E0,5.9E1,2.7E1],"tree_param":{"num_deleted":"0","num_feature":"261","num_nodes":"27","size_leaf_vector":"1"}},{"base_weights":[1.3015409E3,-1.898581E4,1.0579954E5,-3.336982E4,2.1732854E4,7.957346E4,1.7486103E5,-5.2193754E4,-1.7863809E4,1.2555891E4,6.751829E4,5.4064934E4,1.16351375E5,1.2577031E5,2.2011777E5,-7.026275E2,-4.4391016E2,-3.779069E2,-5.9774265E1,1.8874138E2,-2.0612033E2,2.47688E2,7.579429E2,1.9643896E2,7.122138E2,8.2958704E2,1.5768036E3,7.940716E2,1.3819354E3,1.3174622E3,2.485808E3],"categories":[],"categories_nodes":[],"categories_segments":[],"categories_sizes":[],"default_left":[0,0,0,0,0,0,0,0,0,0,0,0,0,0,0,0,0,0,0,0,0,0,0,0,0,0,0,0,0,0,0],"id":15,"left_children":[1,3,5,7,9,11,13,15,17,19,21,23,25,27,29,-1,-1,-1,-1,-1,-1,-1,-1,-1,-1,-1,-1,-1,-1,-1,-1],"loss_changes":[1.9820772E12,4.5932646E11,2.6138994E11,1.6806858E11,8.528734E10,9.878235E10,6.340477E10,3.3678688E10,7.533198E10,3.6433904E10,1.0151707E10,3.8757843E10,4.9022894E10,1.698005E9,1.7556898E10,0E0,0E0,0E0,0E0,0E0,0E0,0E0,0E0,0E0,0E0,0E0,0E0,0E0,0E0,0E0,0E0],"parents":[2147483647,0,0,1,1,2,2,3,3,4,4,5,5,6,6,7,7,8,8,9,9,10,10,11,11,12,12,13,13,14,14],"right_children":[2,4,6,8,10,12,14,16,18,20,22,24,26,28,30,-1,-1,-1,-1,-1,-1,-1,-1,-1,-1,-1,-1,-1,-1,-1,-1],"split_conditions":[1.3747946E0,6.5147924E-1,2.09811E0,3.1172463E-1,1.1013438E0,7.701047E-1,1.2955184E0,-3.666952E-1,-5.3962207E-1,1E0,-1.8111627E-1,7.1956885E-1,7.5913894E-1,1E0,7.674534E-1,-7.026275E2,-4.4391016E2,-3.779069E2,-5.9774265E1,1.8874138E2,-2.0612033E2,2.47688E2,7.579429E2,1.9643896E2,7.122138E2,8.2958704E2,1.5768036E3,7.940716E2,1.3819354E3,1.3174622E3,2.485808E3],"split_indices":[4,4,4,26,16,16,16,3,16,220,12,12,13,212,12,0,0,0,0,0,0,0,0,0,0,0,0,0,0,0,0],"split_type":[0,0,0,0,0,0,0,0,0,0,0,0,0,0,0,0,0,0,0,0,0,0,0,0,0,0,0,0,0,0,0],"sum_hessian":[9.33E2,7.82E2,1.51E2,5.78E2,2.04E2,1.11E2,4E1,2.6E2,3.18E2,1.71E2,3.3E1,6.7E1,4.4E1,2.1E1,1.9E1,7.6E1,1.84E2,1.18E2,2E2,1.44E2,2.7E1,6E0,2.7E1,2.3E1,4.4E1,2.6E1,1.8E1,6E0,1.5E1,6E0,1.3E1],"tree_param":{"num_deleted":"0","num_feature":"261","num_nodes":"31","size_leaf_vector":"1"}},{"base_weights":[-1.5848685E2,-3.3789805E4,5.6089133E4,-4.809773E4,-1.2305616E4,3.1010012E4,1.1471183E5,-5.9591793E4,-2.9468379E4,-2.698007E4,2.858656E3,2.118307E4,8.0352164E4,8.956855E4,1.7886102E5,-8.2831256E2,-5.3906903E2,-3.6240707E2,-1.7366054E2,-4.3067288E2,-1.2733554E2,-2.4975264E1,3.005292E2,1.3204538E2,7.2997723E2,5.1787805E2,9.3741125E2,6.404003E2,1.2657759E3,1.9389818E3,9.140835E2],"categories":[],"categories_nodes":[],"categories_segments":[],"categories_sizes":[],"default_left":[0,0,0,0,0,0,0,0,0,0,0,0,0,0,0,0,0,0,0,0,0,0,0,0,0,0,0,0,0,0,0],"id":16,"left_children":[1,3,5,7,9,11,13,15,17,19,21,23,25,27,29,-1,-1,-1,-1,-1,-1,-1,-1,-1,-1,-1,-1,-1,-1,-1,-1],"loss_changes":[1.7441341E12,1.7677458E11,5.036637E11,7.233182E10,5.170349E10,1.1612435E11,1.501106E11,2.3675011E10,1.035341E10,2.649564E10,1.6825663E10,8.3370705E10,1.0443227E10,6.369778E10,1.909719E10,0E0,0E0,0E0,0E0,0E0,0E0,0E0,0E0,0E0,0E0,0E0,0E0,0E0,0E0,0E0,0E0],"parents":[2147483647,0,0,1,1,2,2,3,3,4,4,5,5,6,6,7,7,8,8,9,9,10,10,11,11,12,12,13,13,14,14],"right_children":[2,4,6,8,10,12,14,16,18,20,22,24,26,28,30,-1,-1,-1,-1,-1,-1,-1,-1,-1,-1,-1,-1,-1,-1,-1,-1],"split_conditions":[6.5147924E-1,-2.540712E-1,1.6503069E0,-1.9707777E-1,-2.6898107E-1,1.095228E0,2.09811E0,1E0,-7.1836114E-2,-7.1836114E-2,9.223985E-1,1.1013438E0,2.1042493E-1,9.7904134E-1,1E0,-8.2831256E2,-5.3906903E2,-3.6240707E2,-1.7366054E2,-4.3067288E2,-1.2733554E2,-2.4975264E1,3.005292E2,1.3204538E2,7.2997723E2,5.1787805E2,9.3741125E2,6.404003E2,1.2657759E3,1.9389818E3,9.140835E2],"split_indices":[4,16,26,12,9,9,4,196,4,4,16,16,16,8,123,0,0,0,0,0,0,0,0,0,0,0,0,0,0,0,0],"split_type":[0,0,0,0,0,0,0,0,0,0,0,0,0,0,0,0,0,0,0,0,0,0,0,0,0,0,0,0,0,0,0],"sum_hessian":[9.2E2,5.76E2,3.44E2,3.45E2,2.31E2,2.42E2,1.02E2,2.12E2,1.33E2,1.17E2,1.14E2,2.03E2,3.9E1,7.5E1,2.7E1,3.9E1,1.73E2,8.4E1,4.9E1,5.4E1,6.3E1,9.6E1,1.8E1,1.77E2,2.6E1,1.4E1,2.5E1,4.6E1,2.9E1,2.2E1,5E0],"tree_param":{"num_deleted":"0","num_feature":"261","num_nodes":"31","size_leaf_vector":"1"}},{"base_weights":[-4.19219E2,-1.9482598E4,1.01737086E5,-3.4476586E4,2.2801873E4,7.840697E4,1.6313672E5,-4.69896E4,-1.2726759E4,1.4237242E4,7.013877E4,5.3401676E4,1.0803011E5,2.4966428E3,1.43069E5,-5.773783E2,-2.977942E2,-3.1277545E2,-4.533767E0,2.005098E2,-1.9627528E2,2.4211374E2,8.0192896E2,1.8837628E2,7.0212756E2,8.1633594E2,1.6630494E3,1.5771576E3,4.8431494E2],"categories":[],"categories_nodes":[],"categories_segments":[],"categories_sizes":[],"default_left":[0,0,0,0,0,0,0,0,0,0,0,0,0,0,0,0,0,0,0,0,0,0,0,0,0,0,0,0,0],"id":17,"left_children":[1,3,5,7,9,11,13,15,17,19,21,23,25,-1,27,-1,-1,-1,-1,-1,-1,-1,-1,-1,-1,-1,-1,-1,-1],"loss_changes":[1.7955783E12,4.9341412E11,1.949156E11,1.556195E11,8.170773E10,7.348971E10,3.2000901E10,6.561294E10,4.802649E10,3.4650825E10,1.2372984E10,3.3540899E10,6.026009E10,0E0,3.9490093E10,0E0,0E0,0E0,0E0,0E0,0E0,0E0,0E0,0E0,0E0,0E0,0E0,0E0,0E0],"parents":[2147483647,0,0,1,1,2,2,3,3,4,4,5,5,6,6,7,7,8,8,9,9,10,10,11,11,12,12,14,14],"right_children":[2,4,6,8,10,12,14,16,18,20,22,24,26,-1,28,-1,-1,-1,-1,-1,-1,-1,-1,-1,-1,-1,-1,-1,-1],"split_conditions":[1.3747946E0,6.5147924E-1,2.09811E0,-1.9315366E-1,1.1013438E0,7.548753E-1,8.5226935E-1,-1.9707777E-1,-7.1836114E-2,1E0,6.2866785E-2,7.1956885E-1,9.2022777E-1,2.4966428E3,1.2733728E0,-5.773783E2,-2.977942E2,-3.1277545E2,-4.533767E0,2.005098E2,-1.9627528E2,2.4211374E2,8.0192896E2,1.8837628E2,7.0212756E2,8.1633594E2,1.6630494E3,1.5771576E3,4.8431494E2],"split_indices":[4,4,4,16,16,16,6,12,4,220,12,12,12,0,29,0,0,0,0,0,0,0,0,0,0,0,0,0,0],"split_type":[0,0,0,0,0,0,0,0,0,0,0,0,0,0,0,0,0,0,0,0,0,0,0,0,0,0,0,0,0],"sum_hessian":[9.2E2,7.76E2,1.44E2,5.73E2,2.03E2,1.06E2,3.8E1,3.63E2,2.1E2,1.73E2,3E1,5.9E1,4.7E1,5E0,3.3E1,2.22E2,1.41E2,8.3E1,1.27E2,1.48E2,2.5E1,6E0,2.4E1,2E1,3.9E1,3.4E1,1.3E1,2.8E1,5E0],"tree_param":{"num_deleted":"0","num_feature":"261","num_nodes":"29","size_leaf_vector":"1"}},{"base_weights":[-2.08782E2,-1.9164967E4,1.0372484E5,-3.9374195E4,1.0799359E4,7.954985E4,1.6310653E5,-5.5785227E4,-2.412787E4,-8.617309E3,3.564771E4,5.3911086E4,1.11262375E5,1.3725981E5,2.5256677E3,-6.281096E2,-3.83304E2,-1.3674147E2,-4.2979245E2,-2.149039E2,1.0286883E2,2.7047653E2,7.644601E2,3.9973484E1,6.2641016E2,8.678834E2,1.5605615E3,8.734241E2,1.4925968E3],"categories":[],"categories_nodes":[],"categories_segments":[],"categories_sizes":[],"default_left":[0,0,0,0,0,0,0,0,0,0,0,0,0,0,0,0,0,0,0,0,0,0,0,0,0,0,0,0,0],"id":18,"left_children":[1,3,5,7,9,11,13,15,17,19,21,23,25,27,-1,-1,-1,-1,-1,-1,-1,-1,-1,-1,-1,-1,-1,-1,-1],"loss_changes":[1.8519918E12,4.8184217E11,1.9517984E11,1.1750277E11,1.5518076E11,7.937399E10,6.013518E10,2.5552814E10,4.8284926E10,4.4268356E10,4.7404663E10,2.5894207E10,3.6885234E10,7.3293496E9,0E0,0E0,0E0,0E0,0E0,0E0,0E0,0E0,0E0,0E0,0E0,0E0,0E0,0E0,0E0],"parents":[2147483647,0,0,1,1,2,2,3,3,4,4,5,5,6,6,7,7,8,8,9,9,10,10,11,11,12,12,13,13],"right_children":[2,4,6,8,10,12,14,16,18,20,22,24,26,28,-1,-1,-1,-1,-1,-1,-1,-1,-1,-1,-1,-1,-1,-1,-1],"split_conditions":[1.3747946E0,-5.9896585E-2,1.7005683E0,3.1172463E-1,6.5147924E-1,8.652883E-1,1.3900228E0,-2.1303928E-1,1E0,9.563223E-3,1.0425897E0,-4.585831E-3,7.5913894E-1,3.5320038E-1,2.5256677E3,-6.281096E2,-3.83304E2,-1.3674147E2,-4.2979245E2,-2.149039E2,1.0286883E2,2.7047653E2,7.644601E2,3.9973484E1,6.2641016E2,8.678834E2,1.5605615E3,8.734241E2,1.4925968E3],"split_indices":[4,16,9,26,4,16,21,12,220,9,9,27,13,16,0,0,0,0,0,0,0,0,0,0,0,0,0,0,0],"split_type":[0,0,0,0,0,0,0,0,0,0,0,0,0,0,0,0,0,0,0,0,0,0,0,0,0,0,0,0,0],"sum_hessian":[9.38E2,7.94E2,1.44E2,4.74E2,3.2E2,1.04E2,4E1,2.27E2,2.47E2,1.8E2,1.4E2,5.9E1,4.5E1,3.3E1,7E0,1.6E2,6.7E1,1.6E2,8.7E1,1.07E2,7.3E1,1.17E2,2.3E1,9E0,5E1,3.1E1,1.4E1,8E0,2.5E1],"tree_param":{"num_deleted":"0","num_feature":"261","num_nodes":"29","size_leaf_vector":"1"}},{"base_weights":[6.841131E2,-1.8674824E4,1.070858E5,-4.1343594E4,6.9239634E3,7.923085E4,1.6598698E5,-6.430645E4,-3.0482527E4,-3.0925703E4,1.7305576E4,5.6974234E4,1.2405021E5,2.0171656E5,1.26318734E5,-8.238319E2,-5.564566E2,-3.8643362E2,-9.087348E1,-4.7456003E2,-1.1406527E2,8.1178696E1,5.042747E2,7.7647495E0,6.553361E2,7.793153E2,1.5559076E3,1.314504E3,2.4931748E3,1.4635737E3,4.1809937E2],"categories":[],"categories_nodes":[],"categories_segments":[],"categories_sizes":[],"default_left":[0,0,0,0,0,0,0,0,0,0,0,0,0,0,0,0,0,0,0,0,0,0,0,0,0,0,0,0,0,0,0],"id":19,"left_children":[1,3,5,7,9,11,13,15,17,19,21,23,25,27,29,-1,-1,-1,-1,-1,-1,-1,-1,-1,-1,-1,-1,-1,-1,-1,-1],"loss_changes":[1.9135159E12,4.5639654E11,2.2146725E11,1.0204001E11,1.4592321E11,9.168755E10,3.829924E10,1.6238051E10,4.941054E10,2.5271312E10,8.814607E10,3.2658326E10,3.4422063E10,4.0811233E10,3.4523415E10,0E0,0E0,0E0,0E0,0E0,0E0,0E0,0E0,0E0,0E0,0E0,0E0,0E0,0E0,0E0,0E0],"parents":[2147483647,0,0,1,1,2,2,3,3,4,4,5,5,6,6,7,7,8,8,9,9,10,10,11,11,12,12,13,13,14,14],"right_children":[2,4,6,8,10,12,14,16,18,20,22,24,26,28,30,-1,-1,-1,-1,-1,-1,-1,-1,-1,-1,-1,-1,-1,-1,-1,-1],"split_conditions":[1.3747946E0,-1.9315366E-1,2.09811E0,-5.7192266E-1,-7.1836114E-2,1.4329903E0,7.801972E-1,1E0,1.9967972E-1,-4.7734097E-1,9.223985E-1,-2.7278712E-1,3.6842978E-1,3.0078354E-1,1.1834768E0,-8.238319E2,-5.564566E2,-3.8643362E2,-9.087348E1,-4.7456003E2,-1.1406527E2,8.1178696E1,5.042747E2,7.7647495E0,6.553361E2,7.793153E2,1.5559076E3,1.314504E3,2.4931748E3,1.4635737E3,4.1809937E2],"split_indices":[4,16,4,6,4,9,28,196,12,9,16,3,16,3,6,0,0,0,0,0,0,0,0,0,0,0,0,0,0,0,0],"split_type":[0,0,0,0,0,0,0,0,0,0,0,0,0,0,0,0,0,0,0,0,0,0,0,0,0,0,0,0,0,0,0],"sum_hessian":[9.27E2,7.85E2,1.42E2,4.16E2,3.69E2,9.8E1,4.4E1,1.32E2,2.84E2,7.9E1,2.9E2,6.7E1,3.1E1,2.1E1,2.3E1,4E1,9.2E1,2.05E2,7.9E1,4.2E1,3.7E1,2.28E2,6.2E1,9E0,5.8E1,1.4E1,1.7E1,1E1,1.1E1,1.8E1,5E0],"tree_param":{"num_deleted":"0","num_feature":"261","num_nodes":"31","size_leaf_vector":"1"}},{"base_weights":[4.8358728E2,-1.8877742E4,1.0280052E5,-4.2445625E4,5.763113E3,7.642732E4,1.672628E5,-5.2064887E4,-2.6242004E4,-3.5313754E4,1.4830696E4,5.143206E4,1.12183234E5,1.2851354E5,2.0539877E5,-5.665552E2,-2.3486157E2,-2.9624277E2,1.2721447E2,-5.0180194E2,-1.5627141E2,8.256677E1,4.7917117E2,4.0117328E2,1.0435867E3,7.915785E2,1.388952E3,8.0707446E2,1.3996515E3,2.706054E3,1.3937723E3],"categories":[],"categories_nodes":[],"categories_segments":[],"categories_sizes":[],"default_left":[0,0,0,0,0,0,0,0,0,0,0,0,0,0,0,0,0,0,0,0,0,0,0,0,0,0,0,0,0,0,0],"id":20,"left_children":[1,3,5,7,9,11,13,15,17,19,21,23,25,27,29,-1,-1,-1,-1,-1,-1,-1,-1,-1,-1,-1,-1,-1,-1,-1,-1],"loss_changes":[1.879921E12,4.6366946E11,2.43928E11,6.222735E10,1.4615868E11,9.164659E10,3.714633E10,3.2123912E10,2.0671767E10,1.9995394E10,6.942532E10,3.533752E10,2.782095E10,1.842774E9,4.8384573E10,0E0,0E0,0E0,0E0,0E0,0E0,0E0,0E0,0E0,0E0,0E0,0E0,0E0,0E0,0E0,0E0],"parents":[2147483647,0,0,1,1,2,2,3,3,4,4,5,5,6,6,7,7,8,8,9,9,10,10,11,11,12,12,13,13,14,14],"right_children":[2,4,6,8,10,12,14,16,18,20,22,24,26,28,30,-1,-1,-1,-1,-1,-1,-1,-1,-1,-1,-1,-1,-1,-1,-1,-1],"split_conditions":[1.3747946E0,7.897405E-1,2.09811E0,-1.8111627E-1,-7.1836114E-2,7.2456664E-1,3.0078354E-1,5.8208025E-1,1E0,-4.9050054E-1,1.3085132E0,1.9914058E0,1.6503069E0,1.6503069E0,6.20575E-1,-5.665552E2,-2.3486157E2,-2.9624277E2,1.2721447E2,-5.0180194E2,-1.5627141E2,8.256677E1,4.7917117E2,4.0117328E2,1.0435867E3,7.915785E2,1.388952E3,8.0707446E2,1.3996515E3,2.706054E3,1.3937723E3],"split_indices":[4,19,4,12,4,9,3,14,171,9,14,14,26,26,28,0,0,0,0,0,0,0,0,0,0,0,0,0,0,0,0],"split_type":[0,0,0,0,0,0,0,0,0,0,0,0,0,0,0,0,0,0,0,0,0,0,0,0,0,0,0,0,0,0,0],"sum_hessian":[9.47E2,7.97E2,1.5E2,4.07E2,3.9E2,1.08E2,4.2E1,2.54E2,1.53E2,7E1,3.2E2,6.5E1,4.3E1,2.3E1,1.9E1,2.18E2,3.6E1,1.41E2,1.2E1,3.9E1,3.1E1,2.68E2,5.2E1,5.5E1,1E1,2.1E1,2.2E1,6E0,1.7E1,8E0,1.1E1],"tree_param":{"num_deleted":"0","num_feature":"261","num_nodes":"31","size_leaf_vector":"1"}},{"base_weights":[6.0324036E2,-1.7818441E4,9.762008E4,-3.2088871E4,2.049591E4,7.267157E4,1.6004311E5,-4.5435E4,-1.1667288E4,5.3212344E3,4.6036656E4,4.95196E4,1.04498375E5,6.4524536E2,1.7730327E5,-5.660902E2,-2.802084E2,-3.0026288E2,3.5787716E1,-1.1568269E1,3.4130096E2,2.3945549E2,6.6466113E2,1.6632593E2,6.483766E2,7.2855005E2,1.291507E3,1.3136643E3,2.1821482E3],"categories":[],"categories_nodes":[],"categories_segments":[],"categories_sizes":[],"default_left":[0,0,0,0,0,0,0,0,0,0,0,0,0,0,0,0,0,0,0,0,0,0,0,0,0,0,0,0,0],"id":21,"left_children":[1,3,5,7,9,11,13,15,17,19,21,23,25,-1,27,-1,-1,-1,-1,-1,-1,-1,-1,-1,-1,-1,-1,-1,-1],"loss_changes":[1.6799328E12,4.3259986E11,2.2197358E11,1.5645822E11,8.308314E10,7.514233E10,5.780354E10,6.6129756E10,6.420511E10,2.5420558E10,3.451316E10,3.1666323E10,2.5694405E10,0E0,3.711107E10,0E0,0E0,0E0,0E0,0E0,0E0,0E0,0E0,0E0,0E0,0E0,0E0,0E0,0E0],"parents":[2147483647,0,0,1,1,2,2,3,3,4,4,5,5,6,6,7,7,8,8,9,9,10,10,11,11,12,12,14,14],"right_children":[2,4,6,8,10,12,14,16,18,20,22,24,26,-1,28,-1,-1,-1,-1,-1,-1,-1,-1,-1,-1,-1,-1,-1,-1],"split_conditions":[1.3747946E0,6.5147924E-1,2.09811E0,-2.673969E-1,5.264346E-1,7.701047E-1,1.6503069E0,-1.9707777E-1,-4.5979485E-1,9.2022777E-1,1.270205E-2,7.1956885E-1,1.8986228E-1,6.4524536E2,1.3716652E0,-5.660902E2,-2.802084E2,-3.0026288E2,3.5787716E1,-1.1568269E1,3.4130096E2,2.3945549E2,6.6466113E2,1.6632593E2,6.483766E2,7.2855005E2,1.291507E3,1.3136643E3,2.1821482E3],"split_indices":[4,4,4,16,16,16,26,12,9,12,12,12,13,0,16,0,0,0,0,0,0,0,0,0,0,0,0,0,0],"split_type":[0,0,0,0,0,0,0,0,0,0,0,0,0,0,0,0,0,0,0,0,0,0,0,0,0,0,0,0,0],"sum_hessian":[9.38E2,7.89E2,1.49E2,5.75E2,2.14E2,1.08E2,4.1E1,3.47E2,2.28E2,1.35E2,7.9E1,6.4E1,4.4E1,7E0,3.4E1,2.1E2,1.37E2,1.03E2,1.25E2,1.11E2,2.4E1,3.9E1,4E1,2.1E1,4.3E1,2.1E1,2.3E1,1.8E1,1.6E1],"tree_param":{"num_deleted":"0","num_feature":"261","num_nodes":"29","size_leaf_vector":"1"}},{"base_weights":[-1.2113529E3,-1.8129895E4,9.767709E4,-4.664383E4,2.47194E3,5.5790895E4,1.3044218E5,-7.632922E4,-4.0709816E4,-1.1931926E4,3.2519793E4,-2.2189154E2,6.3149633E4,1.627682E5,8.191758E4,-8.643751E2,-6.211885E2,-4.9805276E2,-2.966197E2,-2.8329102E2,5.4067608E1,1.4611745E2,5.883987E2,4.1833987E2,8.155268E2,1.306145E3,2.0195605E3,5.679303E2,1.0349257E3],"categories":[],"categories_nodes":[],"categories_segments":[],"categories_sizes":[],"default_left":[0,0,0,0,0,0,0,0,0,0,0,0,0,0,0,0,0,0,0,0,0,0,0,0,0,0,0,0,0],"id":22,"left_children":[1,3,5,7,9,11,13,15,17,19,21,-1,23,25,27,-1,-1,-1,-1,-1,-1,-1,-1,-1,-1,-1,-1,-1,-1],"loss_changes":[1.5459944E12,4.6360497E11,1.7799735E11,5.51994E10,1.9904563E11,3.6405166E10,1.0431182E11,2.3873126E9,2.6457571E10,8.857219E10,6.93701E10,0E0,1.85556E10,2.9063119E10,1.1468308E10,0E0,0E0,0E0,0E0,0E0,0E0,0E0,0E0,0E0,0E0,0E0,0E0,0E0,0E0],"parents":[2147483647,0,0,1,1,2,2,3,3,4,4,5,5,6,6,7,7,8,8,9,9,10,10,12,12,13,13,14,14],"right_children":[2,4,6,8,10,12,14,16,18,20,22,-1,24,26,28,-1,-1,-1,-1,-1,-1,-1,-1,-1,-1,-1,-1,-1,-1],"split_conditions":[1.3747946E0,-7.1836114E-2,1.6503069E0,1E0,3.8937017E-1,-7.8765357E-1,1E0,-7.985216E-1,-2.8626004E-1,4.548204E-1,1.270205E-2,-2.2189154E2,8.5746855E-1,1.2498302E0,8.462516E-1,-8.643751E2,-6.211885E2,-4.9805276E2,-2.966197E2,-2.8329102E2,5.4067608E1,1.4611745E2,5.883987E2,4.1833987E2,8.155268E2,1.306145E3,2.0195605E3,5.679303E2,1.0349257E3],"split_indices":[4,4,26,196,16,12,164,16,13,6,12,0,13,16,16,0,0,0,0,0,0,0,0,0,0,0,0,0,0],"split_type":[0,0,0,0,0,0,0,0,0,0,0,0,0,0,0,0,0,0,0,0,0,0,0,0,0,0,0,0,0],"sum_hessian":[9.22E2,7.88E2,1.34E2,3.3E2,4.58E2,6E1,7.4E1,5.3E1,2.77E2,3.1E2,1.48E2,5E0,5.5E1,4.3E1,3.1E1,2.8E1,2.5E1,1.5E2,1.27E2,1.59E2,1.51E2,8.9E1,5.9E1,2.7E1,2.8E1,2.6E1,1.7E1,1.6E1,1.5E1],"tree_param":{"num_deleted":"0","num_feature":"261","num_nodes":"29","size_leaf_vector":"1"}},{"base_weights":[6.096931E2,-1.7758367E4,9.602423E4,-3.160615E4,2.1047086E4,5.8733742E4,1.23324664E5,-4.985883E4,-1.7271664E4,1.2556177E4,6.3385477E4,-2.0814253E2,6.689935E4,1.01542805E5,1.7136053E5,-7.2282623E2,-4.3173486E2,-3.3767047E2,-3.4910343E1,-1.7670085E2,2.0130748E2,3.9974637E2,9.193495E2,2.9456375E2,7.28134E2,6.618927E2,1.1889862E3,1.8320966E3,1.013285E3],"categories":[],"categories_nodes":[],"categories_segments":[],"categories_sizes":[],"default_left":[0,0,0,0,0,0,0,0,0,0,0,0,0,0,0,0,0,0,0,0,0,0,0,0,0,0,0,0,0],"id":23,"left_children":[1,3,5,7,9,11,13,15,17,19,21,-1,23,25,27,-1,-1,-1,-1,-1,-1,-1,-1,-1,-1,-1,-1,-1,-1],"loss_changes":[1.6719139E12,4.3056087E11,1.4953585E11,1.5350805E11,7.50568E10,4.491287E10,7.4674864E10,3.5706175E10,7.535129E10,4.0880038E10,1.97178E10,0E0,1.1362992E10,3.0786322E10,3.0109204E9,0E0,0E0,0E0,0E0,0E0,0E0,0E0,0E0,0E0,0E0,0E0,0E0,0E0,0E0],"parents":[2147483647,0,0,1,1,2,2,3,3,4,4,5,5,6,6,7,7,8,8,9,9,10,10,12,12,13,13,14,14],"right_children":[2,4,6,8,10,12,14,16,18,20,22,-1,24,26,28,-1,-1,-1,-1,-1,-1,-1,-1,-1,-1,-1,-1,-1,-1],"split_conditions":[1.3747946E0,6.5147924E-1,1.6503069E0,3.1172463E-1,1.3818439E0,-6.394396E-1,1.8277775E0,-7.951515E-1,-7.1836114E-2,1E0,1.17591955E-1,-2.0814253E2,6.004949E-1,9.1220975E-1,1E0,-7.2282623E2,-4.3173486E2,-3.3767047E2,-3.4910343E1,-1.7670085E2,2.0130748E2,3.9974637E2,9.193495E2,2.9456375E2,7.28134E2,6.618927E2,1.1889862E3,1.8320966E3,1.013285E3],"split_indices":[4,4,26,26,14,12,9,4,4,216,12,0,24,23,137,0,0,0,0,0,0,0,0,0,0,0,0,0,0],"split_type":[0,0,0,0,0,0,0,0,0,0,0,0,0,0,0,0,0,0,0,0,0,0,0,0,0,0,0,0,0],"sum_hessian":[9.52E2,7.99E2,1.53E2,5.89E2,2.1E2,6.6E1,8.7E1,2.58E2,3.31E2,1.76E2,3.4E1,6E0,6E1,6.2E1,2.5E1,5.7E1,2.01E2,1.5E2,1.81E2,3.5E1,1.41E2,2E1,1.4E1,9E0,5.1E1,2.2E1,4E1,2E1,5E0],"tree_param":{"num_deleted":"0","num_feature":"261","num_nodes":"29","size_leaf_vector":"1"}},{"base_weights":[-1.2611893E2,-1.7783348E4,9.14135E4,-4.3315316E4,3.2647424E2,5.5710105E4,1.1890076E5,-5.2603562E4,-2.3453943E4,-2.695732E4,1.3017586E4,3.2442967E4,7.802305E4,9.021454E4,1.4358077E5,-7.100944E2,-4.4015186E2,-2.8055573E2,1.4930139E2,-3.5627133E2,-2.874897E1,8.034714E1,5.2793365E2,-2.4068293E1,5.0730112E2,8.629574E2,4.9538986E2,5.9438684E2,1.1549082E3,1.1232251E3,1.60901E3],"categories":[],"categories_nodes":[],"categories_segments":[],"categories_sizes":[],"default_left":[0,0,0,0,0,0,0,0,0,0,0,0,0,0,0,0,0,0,0,0,0,0,0,0,0,0,0,0,0,0,0],"id":24,"left_children":[1,3,5,7,9,11,13,15,17,19,21,23,25,27,29,-1,-1,-1,-1,-1,-1,-1,-1,-1,-1,-1,-1,-1,-1,-1,-1],"loss_changes":[1.519365E12,3.6436902E11,1.4254709E11,5.9090338E10,1.6032381E11,3.2771473E10,4.722485E10,3.1967478E10,1.9141595E10,3.0589723E10,6.2206267E10,2.2427714E10,3.7367644E9,2.580716E10,5.7487524E9,0E0,0E0,0E0,0E0,0E0,0E0,0E0,0E0,0E0,0E0,0E0,0E0,0E0,0E0,0E0,0E0],"parents":[2147483647,0,0,1,1,2,2,3,3,4,4,5,5,6,6,7,7,8,8,9,9,10,10,11,11,12,12,13,13,14,14],"right_children":[2,4,6,8,10,12,14,16,18,20,22,24,26,28,30,-1,-1,-1,-1,-1,-1,-1,-1,-1,-1,-1,-1,-1,-1,-1,-1],"split_conditions":[1.3747946E0,-7.1836114E-2,1.6503069E0,-7.166592E-2,7.897405E-1,8.198983E-1,1.5766649E-1,-7.951515E-1,1E0,3.4293164E-2,1.6132941E0,-2.7278712E-1,1.1223915E0,1.1078101E0,1.303304E0,-7.100944E2,-4.4015186E2,-2.8055573E2,1.4930139E2,-3.5627133E2,-2.874897E1,8.034714E1,5.2793365E2,-2.4068293E1,5.0730112E2,8.629574E2,4.9538986E2,5.9438684E2,1.1549082E3,1.1232251E3,1.60901E3],"split_indices":[4,4,26,12,19,12,3,4,171,3,14,3,29,17,12,0,0,0,0,0,0,0,0,0,0,0,0,0,0,0,0],"split_type":[0,0,0,0,0,0,0,0,0,0,0,0,0,0,0,0,0,0,0,0,0,0,0,0,0,0,0,0,0,0,0],"sum_hessian":[9.38E2,7.87E2,1.51E2,3.26E2,4.61E2,6.7E1,8.4E1,2.21E2,1.05E2,1.46E2,3.15E2,3.4E1,3.3E1,4.1E1,4.3E1,6.8E1,1.53E2,9.4E1,1.1E1,1.07E2,3.9E1,2.81E2,3.4E1,1.2E1,2.2E1,2.4E1,9E0,2E1,2.1E1,1.8E1,2.5E1],"tree_param":{"num_deleted":"0","num_feature":"261","num_nodes":"31","size_leaf_vector":"1"}},{"base_weights":[-2.0188274E2,-1.7166102E4,9.1224086E4,-3.067322E4,2.015337E4,6.8803484E4,1.526975E5,-4.1378332E4,-7.1987915E3,6.174455E3,4.3963227E4,4.8808832E4,9.704433E4,5.916E2,1.6471302E5,-6.002106E2,-3.2546964E2,-1.4468243E2,2.5725473E2,-5.287574E1,2.4224191E2,2.4660918E2,6.312814E2,1.5465845E2,6.588662E2,7.4777185E2,1.3659347E3,1.2437214E3,1.93662E3],"categories":[],"categories_nodes":[],"categories_segments":[],"categories_sizes":[],"default_left":[0,0,0,0,0,0,0,0,0,0,0,0,0,0,0,0,0,0,0,0,0,0,0,0,0,0,0,0,0],"id":25,"left_children":[1,3,5,7,9,11,13,15,17,19,21,23,25,-1,27,-1,-1,-1,-1,-1,-1,-1,-1,-1,-1,-1,-1,-1,-1],"loss_changes":[1.4765385E12,4.053932E11,1.9485622E11,1.4796705E11,7.095544E10,5.7941262E10,3.408783E10,6.472604E10,4.4889702E10,2.826467E10,2.7667448E10,3.713245E10,2.9414982E10,0E0,1.5619981E10,0E0,0E0,0E0,0E0,0E0,0E0,0E0,0E0,0E0,0E0,0E0,0E0,0E0,0E0],"parents":[2147483647,0,0,1,1,2,2,3,3,4,4,5,5,6,6,7,7,8,8,9,9,10,10,11,11,12,12,14,14],"right_children":[2,4,6,8,10,12,14,16,18,20,22,24,26,-1,28,-1,-1,-1,-1,-1,-1,-1,-1,-1,-1,-1,-1,-1,-1],"split_conditions":[1.3747946E0,6.5147924E-1,2.09811E0,-5.9896585E-2,5.264346E-1,7.701047E-1,1.6503069E0,-6.7128485E-1,3.350595E-1,5.7363504E-1,1.270205E-2,7.1956885E-1,9.2022777E-1,5.916E2,1.2193714E0,-6.002106E2,-3.2546964E2,-1.4468243E2,2.5725473E2,-5.287574E1,2.4224191E2,2.4660918E2,6.312814E2,1.5465845E2,6.588662E2,7.4777185E2,1.3659347E3,1.2437214E3,1.93662E3],"split_indices":[4,4,4,16,16,16,26,6,3,12,12,12,12,0,16,0,0,0,0,0,0,0,0,0,0,0,0,0,0],"split_type":[0,0,0,0,0,0,0,0,0,0,0,0,0,0,0,0,0,0,0,0,0,0,0,0,0,0,0,0,0],"sum_hessian":[9.5E2,8.02E2,1.48E2,5.89E2,2.13E2,1.1E2,3.8E1,4.04E2,1.85E2,1.35E2,7.8E1,6.6E1,4.4E1,5E0,3.3E1,1.28E2,2.76E2,1.52E2,3.3E1,8.3E1,5.2E1,4E1,3.8E1,2.3E1,4.3E1,3E1,1.4E1,1.6E1,1.7E1],"tree_param":{"num_deleted":"0","num_feature":"261","num_nodes":"29","size_leaf_vector":"1"}},{"base_weights":[1.3272101E3,-1.6706277E4,9.924984E4,-3.7419055E4,6.817488E3,5.484712E4,1.3508947E5,-4.9992824E4,-2.0158467E4,-9.996129E3,2.8155682E4,-2.0984332E2,6.2780004E4,1.1159156E5,2.4580256E3,-7.061442E2,-4.225398E2,-2.7240576E2,-3.9537743E1,-2.3283968E2,7.052063E1,8.3588585E1,4.2753766E2,1.7712517E2,7.253571E2,1.4264316E3,7.527646E2],"categories":[],"categories_nodes":[],"categories_segments":[],"categories_sizes":[],"default_left":[0,0,0,0,0,0,0,0,0,0,0,0,0,0,0,0,0,0,0,0,0,0,0,0,0,0,0],"id":26,"left_children":[1,3,5,7,9,11,13,15,17,19,21,-1,23,25,-1,-1,-1,-1,-1,-1,-1,-1,-1,-1,-1,-1,-1],"loss_changes":[1.6351031E12,3.8127868E11,2.2174892E11,8.927694E10,1.3195084E11,4.1020506E10,1.7809107E11,3.531722E10,2.020542E10,4.6830133E10,4.6459937E10,0E0,2.5095127E10,6.481445E10,0E0,0E0,0E0,0E0,0E0,0E0,0E0,0E0,0E0,0E0,0E0,0E0,0E0],"parents":[2147483647,0,0,1,1,2,2,3,3,4,4,5,5,6,6,7,7,8,8,9,9,10,10,12,12,13,13],"right_children":[2,4,6,8,10,12,14,16,18,20,22,-1,24,26,-1,-1,-1,-1,-1,-1,-1,-1,-1,-1,-1,-1,-1],"split_conditions":[1.3747946E0,-1.7792429E-1,1.6503069E0,-1.6743498E-1,6.5147924E-1,-6.394396E-1,2.1026757E0,-7.951515E-1,4.548204E-1,9.563223E-3,-1.8111627E-1,-2.0984332E2,7.526418E-2,1E0,2.4580256E3,-7.061442E2,-4.225398E2,-2.7240576E2,-3.9537743E1,-2.3283968E2,7.052063E1,8.3588585E1,4.2753766E2,1.7712517E2,7.253571E2,1.4264316E3,7.527646E2],"split_indices":[4,16,26,12,4,12,16,4,6,9,12,0,16,164,0,0,0,0,0,0,0,0,0,0,0,0,0],"split_type":[0,0,0,0,0,0,0,0,0,0,0,0,0,0,0,0,0,0,0,0,0,0,0,0,0,0,0],"sum_hessian":[9.24E2,7.81E2,1.43E2,4.15E2,3.66E2,6.5E1,7.8E1,2.39E2,1.76E2,2.05E2,1.61E2,6E0,5.9E1,6.6E1,1.2E1,6.3E1,1.76E2,1.22E2,5.4E1,1.15E2,9E1,6.9E1,9.2E1,1.1E1,4.8E1,3.4E1,3.2E1],"tree_param":{"num_deleted":"0","num_feature":"261","num_nodes":"27","size_leaf_vector":"1"}},{"base_weights":[4.5997998E2,4.59597E4,-2.6426992E4,1.842019E4,1.06128805E5,-4.5958965E4,-1.3055149E4,-1.1099111E4,3.5971746E4,8.050654E4,1.5873347E5,-5.0641586E4,-1.6951506E4,-2.8786445E4,1.9699553E3,-5.885465E2,2.3204706E1,2.655089E2,8.2767645E2,5.9579474E2,1.1845939E3,1.035867E3,1.8300193E3,-6.175041E2,-4.1907745E2,-3.5693994E2,-2.7567984E1,-3.7473987E2,3.063351E1,-3.6258907E1,6.937909E2],"categories":[],"categories_nodes":[],"categories_segments":[],"categories_sizes":[],"default_left":[0,0,0,0,0,0,0,0,0,0,0,0,0,0,0,0,0,0,0,0,0,0,0,0,0,0,0,0,0,0,0],"id":27,"left_children":[1,3,5,7,9,11,13,15,17,19,21,23,25,27,29,-1,-1,-1,-1,-1,-1,-1,-1,-1,-1,-1,-1,-1,-1,-1,-1],"loss_changes":[1.1560567E12,5.7966166E11,1.5454002E11,1.2578178E11,1.3548454E11,3.1876809E10,8.372969E10,5.8454774E10,6.481276E10,5.3304623E10,2.7884978E10,1.749585E10,9.213144E9,4.7983297E10,6.890399E10,0E0,0E0,0E0,0E0,0E0,0E0,0E0,0E0,0E0,0E0,0E0,0E0,0E0,0E0,0E0,0E0],"parents":[2147483647,0,0,1,1,2,2,3,3,4,4,5,5,6,6,7,7,8,8,9,9,10,10,11,11,12,12,13,13,14,14],"right_children":[2,4,6,8,10,12,14,16,18,20,22,24,26,28,30,-1,-1,-1,-1,-1,-1,-1,-1,-1,-1,-1,-1,-1,-1,-1,-1],"split_conditions":[1E0,9.030946E-1,-4.5842606E-1,-4.7515637E-1,1.4526215E0,7.539492E-1,6.004949E-1,2.5609595E-1,1.4615027E0,1.6568342E0,1.5766649E-1,-6.951042E-1,-1.7973902E0,5.873034E-1,1.6182292E0,-5.885465E2,2.3204706E1,2.655089E2,8.2767645E2,5.9579474E2,1.1845939E3,1.035867E3,1.8300193E3,-6.175041E2,-4.1907745E2,-3.5693994E2,-2.7567984E1,-3.7473987E2,3.063351E1,-3.6258907E1,6.937909E2],"split_indices":[153,27,27,13,13,14,24,6,9,14,3,13,6,6,13,0,0,0,0,0,0,0,0,0,0,0,0,0,0,0,0],"split_type":[0,0,0,0,0,0,0,0,0,0,0,0,0,0,0,0,0,0,0,0,0,0,0,0,0,0,0,0,0,0,0],"sum_hessian":[9.43E2,3.5E2,5.93E2,2.41E2,1.09E2,2.4E2,3.53E2,9E1,1.51E2,7.5E1,3.4E1,2.06E2,3.4E1,1.72E2,1.81E2,1.9E1,7.1E1,1.27E2,2.4E1,5E1,2.5E1,1.2E1,2.2E1,8.8E1,1.18E2,1.4E1,2E1,1.35E2,3.7E1,1.68E2,1.3E1],"tree_param":{"num_deleted":"0","num_feature":"261","num_nodes":"31","size_leaf_vector":"1"}},{"base_weights":[3.2708047E2,-1.7942395E4,9.512863E4,-3.5584945E4,6.344265E3,7.0861766E4,1.3856628E5,-5.7465977E4,-2.4037564E4,-1.061161E4,2.4447723E4,4.594558E4,9.5339836E4,1.5270519E5,4.7170937E1,-7.767126E2,-5.148052E2,-3.5138168E2,-9.251435E1,-2.04491E2,2.7355106E2,1.7656578E2,6.7587683E2,-7.801526E1,5.636887E2,1.0738711E3,5.024908E2,7.611567E2,1.7134788E3],"categories":[],"categories_nodes":[],"categories_segments":[],"categories_sizes":[],"default_left":[0,0,0,0,0,0,0,0,0,0,0,0,0,0,0,0,0,0,0,0,0,0,0,0,0,0,0,0,0],"id":28,"left_children":[1,3,5,7,9,11,13,15,17,19,21,23,25,27,-1,-1,-1,-1,-1,-1,-1,-1,-1,-1,-1,-1,-1,-1,-1],"loss_changes":[1.5864636E12,3.2929736E11,1.461871E11,1.1105619E11,9.971447E10,5.477987E10,9.768868E10,1.4504919E10,4.776647E10,6.3306904E10,4.4802875E10,2.8450857E10,2.0678509E10,5.406589E10,0E0,0E0,0E0,0E0,0E0,0E0,0E0,0E0,0E0,0E0,0E0,0E0,0E0,0E0,0E0],"parents":[2147483647,0,0,1,1,2,2,3,3,4,4,5,5,6,6,7,7,8,8,9,9,10,10,11,11,12,12,13,13],"right_children":[2,4,6,8,10,12,14,16,18,20,22,24,26,28,-1,-1,-1,-1,-1,-1,-1,-1,-1,-1,-1,-1,-1,-1,-1],"split_conditions":[1.3747946E0,-9.797004E-2,1.6237693E-1,-5.0568116E-1,1.8985446E-1,-2.9915493E-2,2.2768393E0,-1.3707852E0,-4.3023635E-2,3.350595E-1,1.1013438E0,-2.7278712E-1,1E0,7.8242755E-1,4.7170937E1,-7.767126E2,-5.148052E2,-3.5138168E2,-9.251435E1,-2.04491E2,2.7355106E2,1.7656578E2,6.7587683E2,-7.801526E1,5.636887E2,1.0738711E3,5.024908E2,7.611567E2,1.7134788E3],"split_indices":[4,16,3,6,6,9,2,27,13,3,16,3,150,13,0,0,0,0,0,0,0,0,0,0,0,0,0,0,0],"split_type":[0,0,0,0,0,0,0,0,0,0,0,0,0,0,0,0,0,0,0,0,0,0,0,0,0,0,0,0,0],"sum_hessian":[9.14E2,7.67E2,1.47E2,4.44E2,3.23E2,9.6E1,5.1E1,1.52E2,2.92E2,1.67E2,1.56E2,4.9E1,4.7E1,4.6E1,5E0,3.2E1,1.2E2,1.66E2,1.26E2,1.33E2,3.4E1,1.36E2,2E1,8E0,4.1E1,3.6E1,1.1E1,1E1,3.6E1],"tree_param":{"num_deleted":"0","num_feature":"261","num_nodes":"29","size_leaf_vector":"1"}},{"base_weights":[-1.6023744E2,-1.693925E4,9.040156E4,-2.993565E4,1.944463E4,6.839359E4,1.450953E5,-4.758107E4,-1.6370252E4,7.0517427E3,4.4307816E4,4.4867086E4,1.0459741E5,1.14411445E5,1.9609903E5,-6.7992566E2,-4.16709E2,-3.3667664E2,-4.8143303E1,7.284165E0,3.6109906E2,3.2839545E2,9.118347E2,1.1376676E1,5.265559E2,7.890874E2,1.4386384E3,4.78014E2,1.2681356E3,8.292394E2,2.497603E3],"categories":[],"categories_nodes":[],"categories_segments":[],"categories_sizes":[],"default_left":[0,0,0,0,0,0,0,0,0,0,0,0,0,0,0,0,0,0,0,0,0,0,0,0,0,0,0,0,0,0,0],"id":29,"left_children":[1,3,5,7,9,11,13,15,17,19,21,23,25,27,29,-1,-1,-1,-1,-1,-1,-1,-1,-1,-1,-1,-1,-1,-1,-1,-1],"loss_changes":[1.41926E12,3.7319534E11,1.658163E11,1.3829335E11,6.37779E10,8.559241E10,4.1728606E10,2.75668E10,6.58008E10,2.569789E10,3.4098782E10,2.2418825E10,3.0004642E10,1.7069081E10,6.4312607E10,0E0,0E0,0E0,0E0,0E0,0E0,0E0,0E0,0E0,0E0,0E0,0E0,0E0,0E0,0E0,0E0],"parents":[2147483647,0,0,1,1,2,2,3,3,4,4,5,5,6,6,7,7,8,8,9,9,10,10,11,11,12,12,13,13,14,14],"right_children":[2,4,6,8,10,12,14,16,18,20,22,24,26,28,30,-1,-1,-1,-1,-1,-1,-1,-1,-1,-1,-1,-1,-1,-1,-1,-1],"split_conditions":[1.3747946E0,6.5147924E-1,1.7005683E0,3.1172463E-1,5.873521E-1,8.652883E-1,1.2498302E0,-7.951515E-1,-5.0154865E-1,9.2022777E-1,1.0798751E0,7.529071E-1,7.5913894E-1,2.5040206E-1,1E0,-6.7992566E2,-4.16709E2,-3.3667664E2,-4.8143303E1,7.284165E0,3.6109906E2,3.2839545E2,9.118347E2,1.1376676E1,5.265559E2,7.890874E2,1.4386384E3,4.78014E2,1.2681356E3,8.292394E2,2.497603E3],"split_indices":[4,4,9,26,16,16,16,4,16,12,9,6,13,16,255,0,0,0,0,0,0,0,0,0,0,0,0,0,0,0,0],"split_type":[0,0,0,0,0,0,0,0,0,0,0,0,0,0,0,0,0,0,0,0,0,0,0,0,0,0,0,0,0,0,0],"sum_hessian":[9.32E2,7.87E2,1.45E2,5.8E2,2.07E2,1.05E2,4E1,2.51E2,3.29E2,1.39E2,6.8E1,6.5E1,4E1,2.7E1,1.3E1,5.4E1,1.97E2,1.31E2,1.98E2,1.15E2,2.4E1,5.6E1,1.2E1,1E1,5.5E1,2.6E1,1.4E1,5E0,2.2E1,5E0,8E0],"tree_param":{"num_deleted":"0","num_feature":"261","num_nodes":"31","size_leaf_vector":"1"}},{"base_weights":[-1.1772958E2,-2.9299604E4,4.714102E4,-4.2215016E4,-1.066543E4,2.028894E4,8.681625E4,-5.158666E4,-2.4957123E4,-2.8154996E4,9.874238E2,5.159929E3,4.866268E4,6.7064836E4,1.4066722E5,-6.783852E2,-4.4720584E2,-5.12463E2,-2.2177141E2,-3.2781625E2,2.0211464E2,-5.9564754E1,2.4735095E2,-2.095957E2,1.2643389E2,2.301339E2,6.1802844E2,4.5826437E2,9.934835E2,8.427077E2,1.5526367E3],"categories":[],"categories_nodes":[],"categories_segments":[],"categories_sizes":[],"default_left":[0,0,0,0,0,0,0,0,0,0,0,0,0,0,0,0,0,0,0,0,0,0,0,0,0,0,0,0,0,0,0],"id":30,"left_children":[1,3,5,7,9,11,13,15,17,19,21,23,25,27,29,-1,-1,-1,-1,-1,-1,-1,-1,-1,-1,-1,-1,-1,-1,-1,-1],"loss_changes":[1.3004923E12,1.398592E11,3.817691E11,5.4349332E10,4.894061E10,9.24705E10,1.4479301E11,2.1738422E10,7.8527693E9,2.2144827E10,2.4058044E10,2.802092E10,2.3855383E10,6.949739E10,1.8196988E10,0E0,0E0,0E0,0E0,0E0,0E0,0E0,0E0,0E0,0E0,0E0,0E0,0E0,0E0,0E0,0E0],"parents":[2147483647,0,0,1,1,2,2,3,3,4,4,5,5,6,6,7,7,8,8,9,9,10,10,11,11,12,12,13,13,14,14],"right_children":[2,4,6,8,10,12,14,16,18,20,22,24,26,28,30,-1,-1,-1,-1,-1,-1,-1,-1,-1,-1,-1,-1,-1,-1,-1,-1],"split_conditions":[6.5147924E-1,-2.540712E-1,1.3747946E0,-1.9707777E-1,-7.1836114E-2,5.873521E-1,2.09811E0,-7.951515E-1,-7.3752636E-1,1E0,7.986598E-1,1E0,-2.0163819E-1,8.4244424E-1,6.159072E-1,-6.783852E2,-4.4720584E2,-5.12463E2,-2.2177141E2,-3.2781625E2,2.0211464E2,-5.9564754E1,2.4735095E2,-2.095957E2,1.2643389E2,2.301339E2,6.1802844E2,4.5826437E2,9.934835E2,8.427077E2,1.5526367E3],"split_indices":[4,16,4,12,4,16,4,4,6,171,16,216,12,16,16,0,0,0,0,0,0,0,0,0,0,0,0,0,0,0,0],"split_type":[0,0,0,0,0,0,0,0,0,0,0,0,0,0,0,0,0,0,0,0,0,0,0,0,0,0,0,0,0,0,0],"sum_hessian":[9.41E2,5.82E2,3.59E2,3.43E2,2.39E2,2.15E2,1.44E2,2.21E2,1.22E2,9.5E1,1.44E2,1.41E2,7.4E1,1.07E2,3.7E1,6.3E1,1.58E2,1E1,1.12E2,8.7E1,8E0,1.12E2,3.2E1,3.1E1,1.1E2,2.6E1,4.8E1,6.6E1,4.1E1,9E0,2.8E1],"tree_param":{"num_deleted":"0","num_feature":"261","num_nodes":"31","size_leaf_vector":"1"}},{"base_weights":[-7.077176E2,4.1614105E4,-2.5915E4,2.073662E4,9.936184E4,-3.9779E4,-2.5470579E3,-2.6047102E4,3.162136E4,6.585212E4,1.3594445E5,-5.1337215E4,-2.466581E4,-6.867758E3,5.3781234E4,-5.500784E2,-1.08006386E2,2.3726271E2,7.396649E2,5.075312E2,1.7063569E3,9.4425226E2,1.5629739E3,-7.2170764E2,-4.6639053E2,-3.016812E2,-1.3515498E2,-2.1893942E2,6.98074E1,3.196728E2,8.480994E2],"categories":[],"categories_nodes":[],"categories_segments":[],"categories_sizes":[],"default_left":[0,0,0,0,0,0,0,0,0,0,0,0,0,0,0,0,0,0,0,0,0,0,0,0,0,0,0,0,0,0,0],"id":31,"left_children":[1,3,5,7,9,11,13,15,17,19,21,23,25,27,29,-1,-1,-1,-1,-1,-1,-1,-1,-1,-1,-1,-1,-1,-1,-1,-1],"loss_changes":[1.01455574E12,4.259374E11,1.9298668E11,1.3424154E11,1.0627973E11,6.406465E10,5.464257E10,2.148333E10,6.9454905E10,7.202818E10,2.242334E10,1.7286562E10,9.654067E9,4.343558E10,8.1185997E9,0E0,0E0,0E0,0E0,0E0,0E0,0E0,0E0,0E0,0E0,0E0,0E0,0E0,0E0,0E0,0E0],"parents":[2147483647,0,0,1,1,2,2,3,3,4,4,5,5,6,6,7,7,8,8,9,9,10,10,11,11,12,12,13,13,14,14],"right_children":[2,4,6,8,10,12,14,16,18,20,22,24,26,28,30,-1,-1,-1,-1,-1,-1,-1,-1,-1,-1,-1,-1,-1,-1,-1,-1],"split_conditions":[1E0,1.6503069E0,-8.6548E-2,-4.6918622E-1,6.631553E-1,-1.9707777E-1,1.7920378E0,-1.0193475E0,1.1013438E0,1.9770331E0,6.159072E-1,1E0,1.9503751E-1,-3.2161936E-1,5.4177874E-1,-5.500784E2,-1.08006386E2,2.3726271E2,7.396649E2,5.075312E2,1.7063569E3,9.4425226E2,1.5629739E3,-7.2170764E2,-4.6639053E2,-3.016812E2,-1.3515498E2,-2.1893942E2,6.98074E1,3.196728E2,8.480994E2],"split_indices":[153,26,16,16,9,12,14,16,16,16,16,196,13,9,13,0,0,0,0,0,0,0,0,0,0,0,0,0,0,0,0],"split_type":[0,0,0,0,0,0,0,0,0,0,0,0,0,0,0,0,0,0,0,0,0,0,0,0,0,0,0,0,0,0,0],"sum_hessian":[9.49E2,3.54E2,5.95E2,2.61E2,9.3E1,3.73E2,2.22E2,4.9E1,2.12E2,5E1,4.3E1,2.1E2,1.63E2,2.07E2,1.5E1,1.6E1,3.3E1,1.8E2,3.2E1,4.5E1,5E0,1.6E1,2.7E1,3.6E1,1.74E2,1.08E2,5.5E1,9.9E1,1.08E2,1E1,5E0],"tree_param":{"num_deleted":"0","num_feature":"261","num_nodes":"31","size_leaf_vector":"1"}},{"base_weights":[6.4590234E2,-1.3089156E4,9.381E4,-3.6321812E4,1.0462643E4,3.0165184E4,1.26459016E5,-4.314486E4,-7.6374336E3,3.19723E4,-6.375874E3,-3.606303E2,4.6808973E4,8.103607E4,1.687205E5,-7.0143494E2,-3.7861444E2,-2.2494667E2,7.782167E1,1.0441352E2,4.944204E2,-1.9715144E2,1.0003969E2,2.9685245E2,7.991446E2,6.780813E2,1.2547179E3,1.1252299E3,1.9793807E3],"categories":[],"categories_nodes":[],"categories_segments":[],"categories_sizes":[],"default_left":[0,0,0,0,0,0,0,0,0,0,0,0,0,0,0,0,0,0,0,0,0,0,0,0,0,0,0,0,0],"id":32,"left_children":[1,3,5,7,9,11,13,15,17,19,21,-1,23,25,27,-1,-1,-1,-1,-1,-1,-1,-1,-1,-1,-1,-1,-1,-1],"loss_changes":[1.1951081E12,4.4577712E11,2.4553823E11,7.991358E10,1.4689111E11,4.7984177E10,1.3797923E11,4.455976E10,1.8502468E10,6.6436678E10,5.001412E10,0E0,1.6901956E10,1.5003714E10,4.3405672E10,0E0,0E0,0E0,0E0,0E0,0E0,0E0,0E0,0E0,0E0,0E0,0E0,0E0,0E0],"parents":[2147483647,0,0,1,1,2,2,3,3,4,4,5,5,6,6,7,7,8,8,9,9,10,10,12,12,13,13,14,14],"right_children":[2,4,6,8,10,12,14,16,18,20,22,-1,24,26,28,-1,-1,-1,-1,-1,-1,-1,-1,-1,-1,-1,-1,-1,-1],"split_conditions":[1.6503069E0,-1.9315366E-1,5.492787E-1,2.1564122E-1,1E0,1.8985446E-1,8.814641E-1,-1.1462045E0,4.548204E-1,-1.0100105E-2,-2.0759447E-1,-3.606303E2,1.1078101E0,2.2572298E0,1.8813398E-1,-7.0143494E2,-3.7861444E2,-2.2494667E2,7.782167E1,1.0441352E2,4.944204E2,-1.9715144E2,1.0003969E2,2.9685245E2,7.991446E2,6.780813E2,1.2547179E3,1.1252299E3,1.9793807E3],"split_indices":[26,16,16,12,153,6,12,27,6,12,6,0,17,14,3,0,0,0,0,0,0,0,0,0,0,0,0,0,0],"split_type":[0,0,0,0,0,0,0,0,0,0,0,0,0,0,0,0,0,0,0,0,0,0,0,0,0,0,0,0,0],"sum_hessian":[9.32E2,8.13E2,1.19E2,4.09E2,4.04E2,4.1E1,7.8E1,3.3E2,7.9E1,1.77E2,2.27E2,8E0,3.3E1,3.9E1,3.9E1,5.2E1,2.78E2,4E1,3.9E1,8E1,9.7E1,1.25E2,1.02E2,2.3E1,1E1,3.2E1,7E0,1.5E1,2.4E1],"tree_param":{"num_deleted":"0","num_feature":"261","num_nodes":"29","size_leaf_vector":"1"}},{"base_weights":[-9.683992E2,-1.7582771E4,8.911748E4,-3.0028371E4,1.6463084E4,5.9279535E4,1.3388122E5,-4.6584367E4,-1.631868E4,7.7088247E3,5.554735E4,9.395068E3,6.683362E4,1.08043734E5,2.2392124E3,-6.49884E2,-4.0733948E2,-2.8530447E1,-2.8719006E2,1.3446857E2,-2.1840746E2,2.2342654E2,6.622681E2,-1.169702E2,2.9145004E2,1.2023265E2,7.2068115E2,5.423927E2,1.2297733E3],"categories":[],"categories_nodes":[],"categories_segments":[],"categories_sizes":[],"default_left":[0,0,0,0,0,0,0,0,0,0,0,0,0,0,0,0,0,0,0,0,0,0,0,0,0,0,0,0,0],"id":33,"left_children":[1,3,5,7,9,11,13,15,17,19,21,23,25,27,-1,-1,-1,-1,-1,-1,-1,-1,-1,-1,-1,-1,-1,-1,-1],"loss_changes":[1.4129741E12,3.3820004E11,1.8840512E11,1.3179476E11,7.279272E10,3.3286914E10,1.1073834E11,2.577793E10,5.3518107E10,3.0135611E10,1.2350038E10,5.7562865E9,2.151206E10,3.1094047E10,0E0,0E0,0E0,0E0,0E0,0E0,0E0,0E0,0E0,0E0,0E0,0E0,0E0,0E0,0E0],"parents":[2147483647,0,0,1,1,2,2,3,3,4,4,5,5,6,6,7,7,8,8,9,9,10,10,11,11,12,12,13,13],"right_children":[2,4,6,8,10,12,14,16,18,20,22,24,26,28,-1,-1,-1,-1,-1,-1,-1,-1,-1,-1,-1,-1,-1,-1,-1],"split_conditions":[1.3747946E0,6.5147924E-1,1.3542918E0,3.1172463E-1,9.890271E-1,-1.08149365E-1,1.3900228E0,-8.514996E-1,1E0,1E0,1E0,9.5163155E-1,-2.673969E-1,1.6503069E0,2.2392124E3,-6.49884E2,-4.0733948E2,-2.8530447E1,-2.8719006E2,1.3446857E2,-2.1840746E2,2.2342654E2,6.622681E2,-1.169702E2,2.9145004E2,1.2023265E2,7.2068115E2,5.423927E2,1.2297733E3],"split_indices":[4,4,13,26,16,12,21,12,223,220,216,6,16,26,0,0,0,0,0,0,0,0,0,0,0,0,0,0,0],"split_type":[0,0,0,0,0,0,0,0,0,0,0,0,0,0,0,0,0,0,0,0,0,0,0,0,0,0,0,0,0],"sum_hessian":[9.42E2,7.96E2,1.46E2,5.83E2,2.13E2,8.9E1,5.7E1,2.63E2,3.2E2,1.75E2,3.8E1,1.2E1,7.7E1,4.6E1,1.1E1,6.1E1,2.02E2,1.54E2,1.66E2,1.47E2,2.8E1,1E1,2.8E1,6E0,6E0,7E0,7E1,1.1E1,3.5E1],"tree_param":{"num_deleted":"0","num_feature":"261","num_nodes":"29","size_leaf_vector":"1"}},{"base_weights":[1.2229542E3,-1.4795114E4,8.987002E4,-3.459665E4,7.9206064E3,5.8882637E4,1.2178694E5,-4.662311E4,-1.7414658E4,-6.828841E3,2.6265275E4,3.4581156E4,8.7170266E4,7.540204E4,1.5275669E5,-6.511285E2,-4.0698538E2,-2.6820218E2,1.8510452E1,9.801278E1,-1.7816609E2,1.5704565E2,5.913889E2,6.4524945E2,2.7798163E2,7.16506E2,1.2865284E3,4.3422842E2,8.324689E2,8.530445E2,1.7176372E3],"categories":[],"categories_nodes":[],"categories_segments":[],"categories_sizes":[],"default_left":[0,0,0,0,0,0,0,0,0,0,0,0,0,0,0,0,0,0,0,0,0,0,0,0,0,0,0,0,0,0,0],"id":34,"left_children":[1,3,5,7,9,11,13,15,17,19,21,23,25,27,29,-1,-1,-1,-1,-1,-1,-1,-1,-1,-1,-1,-1,-1,-1,-1,-1],"loss_changes":[1.3360872E12,3.587695E11,1.3524795E11,8.721606E10,1.0083279E11,4.854289E10,8.903878E10,2.4735973E10,3.2122884E10,3.7999305E10,5.6701256E10,6.7368796E9,1.2671009E10,3.911336E9,3.791264E10,0E0,0E0,0E0,0E0,0E0,0E0,0E0,0E0,0E0,0E0,0E0,0E0,0E0,0E0,0E0,0E0],"parents":[2147483647,0,0,1,1,2,2,3,3,4,4,5,5,6,6,7,7,8,8,9,9,10,10,11,11,12,12,13,13,14,14],"right_children":[2,4,6,8,10,12,14,16,18,20,22,24,26,28,30,-1,-1,-1,-1,-1,-1,-1,-1,-1,-1,-1,-1,-1,-1,-1,-1],"split_conditions":[1.3747946E0,-1.7792429E-1,7.548753E-1,-2.9143527E-1,6.5147924E-1,1.095228E0,7.5913894E-1,-7.951515E-1,4.548204E-1,1E0,9.890271E-1,1E0,1.1834768E0,-1.6116239E-1,1.6503069E0,-6.511285E2,-4.0698538E2,-2.6820218E2,1.8510452E1,9.801278E1,-1.7816609E2,1.5704565E2,5.913889E2,6.4524945E2,2.7798163E2,7.16506E2,1.2865284E3,4.3422842E2,8.324689E2,8.530445E2,1.7176372E3],"split_indices":[4,16,16,13,4,9,13,4,6,46,16,152,6,8,26,0,0,0,0,0,0,0,0,0,0,0,0,0,0,0,0],"split_type":[0,0,0,0,0,0,0,0,0,0,0,0,0,0,0,0,0,0,0,0,0,0,0,0,0,0,0,0,0,0,0],"sum_hessian":[9.39E2,7.96E2,1.43E2,4.25E2,3.71E2,7.4E1,6.9E1,2.49E2,1.76E2,2.06E2,1.65E2,4.1E1,3.3E1,2.9E1,4E1,5.8E1,1.91E2,1.18E2,5.8E1,8.2E1,1.24E2,1.26E2,3.9E1,6E0,3.5E1,2.6E1,7E0,7E0,2.2E1,1E1,3E1],"tree_param":{"num_deleted":"0","num_feature":"261","num_nodes":"31","size_leaf_vector":"1"}},{"base_weights":[4.2919992E2,-1.2569053E4,8.70126E4,-3.2362154E4,1.3856375E4,5.283447E4,1.29402125E5,-4.003833E4,-6.5088E3,-3.5257158E3,3.5931938E4,6.78882E4,-2.8091572E4,1.00012516E5,1.773028E3,-7.1591473E2,-3.5818317E2,-1.9503937E2,5.4953728E1,3.501415E1,-4.0045132E2,5.0614734E2,6.1728416E1,4.467859E2,1.0429198E3,-4.0836545E2,-1.3154227E2,8.937108E2,1.4009806E3],"categories":[],"categories_nodes":[],"categories_segments":[],"categories_sizes":[],"default_left":[0,0,0,0,0,0,0,0,0,0,0,0,0,0,0,0,0,0,0,0,0,0,0,0,0,0,0,0,0],"id":35,"left_children":[1,3,5,7,9,11,13,15,17,19,21,23,25,27,-1,-1,-1,-1,-1,-1,-1,-1,-1,-1,-1,-1,-1,-1,-1],"loss_changes":[1.09501455E12,4.4294128E11,1.7716006E11,9.579155E10,1.3941681E11,8.962032E10,6.1103276E10,4.710236E10,1.757872E10,5.249206E10,6.959907E10,4.688036E10,1.7473403E9,3.2622838E9,0E0,0E0,0E0,0E0,0E0,0E0,0E0,0E0,0E0,0E0,0E0,0E0,0E0,0E0,0E0],"parents":[2147483647,0,0,1,1,2,2,3,3,4,4,5,5,6,6,7,7,8,8,9,9,10,10,11,11,12,12,13,13],"right_children":[2,4,6,8,10,12,14,16,18,20,22,24,26,28,-1,-1,-1,-1,-1,-1,-1,-1,-1,-1,-1,-1,-1,-1,-1],"split_conditions":[1.6503069E0,-5.9896585E-2,9.585683E-1,2.1564122E-1,-1.0100105E-2,1E0,1.2098151E0,1E0,1.0050351E-1,1E0,1E0,1.4880015E0,1E0,2.2473547E0,1.773028E3,-7.1591473E2,-3.5818317E2,-1.9503937E2,5.4953728E1,3.501415E1,-4.0045132E2,5.0614734E2,6.1728416E1,4.467859E2,1.0429198E3,-4.0836545E2,-1.3154227E2,8.937108E2,1.4009806E3],"split_indices":[26,16,16,12,12,165,12,196,25,40,204,12,259,16,0,0,0,0,0,0,0,0,0,0,0,0,0,0,0],"split_type":[0,0,0,0,0,0,0,0,0,0,0,0,0,0,0,0,0,0,0,0,0,0,0,0,0,0,0,0,0],"sum_hessian":[9.71E2,8.45E2,1.26E2,4.83E2,3.62E2,7.1E1,5.5E1,3.72E2,1.11E2,2.03E2,1.59E2,6E1,1.1E1,3.6E1,1.9E1,4.2E1,3.3E2,5.3E1,5.8E1,1.71E2,3.2E1,1.06E2,5.3E1,3.8E1,2.2E1,5E0,6E0,3.1E1,5E0],"tree_param":{"num_deleted":"0","num_feature":"261","num_nodes":"29","size_leaf_vector":"1"}},{"base_weights":[1.3087095E3,-1.4874653E4,8.924789E4,-3.262664E4,9.227664E3,6.387965E4,1.4993955E5,-5.156605E4,-2.2539008E4,-2.4118814E4,1.877463E4,4.5549832E4,1.1200523E5,1.0984792E5,2.0243617E5,-7.018645E2,-4.4600217E2,-3.5345792E2,-1.1120837E2,-3.73162E2,-7.106783E1,9.2313484E1,4.740927E2,-4.0416573E1,5.387632E2,6.537013E2,1.3833557E3,7.125883E2,1.2031449E3,1.5041891E3,2.727313E3],"categories":[],"categories_nodes":[],"categories_segments":[],"categories_sizes":[],"default_left":[0,0,0,0,0,0,0,0,0,0,0,0,0,0,0,0,0,0,0,0,0,0,0,0,0,0,0,0,0,0,0],"id":36,"left_children":[1,3,5,7,9,11,13,15,17,19,21,23,25,27,29,-1,-1,-1,-1,-1,-1,-1,-1,-1,-1,-1,-1,-1,-1,-1,-1],"loss_changes":[1.327705E12,3.374579E11,2.1366977E11,8.557619E10,1.0710264E11,8.664E10,6.615918E10,1.7233609E10,4.318349E10,1.6573379E10,7.088542E10,3.2012812E10,2.5338708E10,1.9278397E9,2.1137588E10,0E0,0E0,0E0,0E0,0E0,0E0,0E0,0E0,0E0,0E0,0E0,0E0,0E0,0E0,0E0,0E0],"parents":[2147483647,0,0,1,1,2,2,3,3,4,4,5,5,6,6,7,7,8,8,9,9,10,10,11,11,12,12,13,13,14,14],"right_children":[2,4,6,8,10,12,14,16,18,20,22,24,26,28,30,-1,-1,-1,-1,-1,-1,-1,-1,-1,-1,-1,-1,-1,-1,-1,-1],"split_conditions":[1.3747946E0,-5.9896585E-2,2.09811E0,-4.725604E-1,-7.1836114E-2,1.4329903E0,1.2193714E0,1E0,-6.919159E-1,6.004949E-1,9.890271E-1,-2.7278712E-1,3.4748936E-1,1.3905185E0,-3.80814E-1,-7.018645E2,-4.4600217E2,-3.5345792E2,-1.1120837E2,-3.73162E2,-7.106783E1,9.2313484E1,4.740927E2,-4.0416573E1,5.387632E2,6.537013E2,1.3833557E3,7.125883E2,1.2031449E3,1.5041891E3,2.727313E3],"split_indices":[4,16,4,6,4,9,16,196,16,24,16,3,16,13,0,0,0,0,0,0,0,0,0,0,0,0,0,0,0,0,0],"split_type":[0,0,0,0,0,0,0,0,0,0,0,0,0,0,0,0,0,0,0,0,0,0,0,0,0,0,0,0,0,0,0],"sum_hessian":[9.31E2,7.87E2,1.44E2,4.53E2,3.34E2,1.03E2,4.1E1,1.56E2,2.97E2,7.4E1,2.6E2,7.6E1,2.7E1,2.5E1,1.6E1,4E1,1.16E2,1.39E2,1.58E2,4.1E1,3.3E1,1.96E2,6.4E1,1.1E1,6.5E1,1.1E1,1.6E1,7E0,1.8E1,1.1E1,5E0],"tree_param":{"num_deleted":"0","num_feature":"261","num_nodes":"31","size_leaf_vector":"1"}},{"base_weights":[-4.899559E2,-1.6227465E4,8.192812E4,-3.9850496E4,1.4735912E3,6.657856E4,1.7450969E5,-4.7645695E4,-2.4116928E4,-1.135968E4,2.9077088E4,4.49923E4,9.25244E4,2.0999667E5,5.0792792E2,-6.856245E2,-4.2097253E2,-2.9904684E2,3.2142185E1,-3.677219E2,-3.720425E1,4.413731E2,6.376804E1,1.2521858E2,5.939031E2,7.5126434E2,1.3108839E3,1.1852834E3,2.4079788E3],"categories":[],"categories_nodes":[],"categories_segments":[],"categories_sizes":[],"default_left":[0,0,0,0,0,0,0,0,0,0,0,0,0,0,0,0,0,0,0,0,0,0,0,0,0,0,0,0,0],"id":37,"left_children":[1,3,5,7,9,11,13,15,17,19,21,23,25,27,-1,-1,-1,-1,-1,-1,-1,-1,-1,-1,-1,-1,-1,-1,-1],"loss_changes":[1.2296407E12,3.329082E11,2.0438647E11,4.0673313E10,1.618652E11,6.976687E10,8.153085E10,2.3458316E10,1.8287526E10,6.0432572E10,4.9289896E10,3.385203E10,2.9736927E10,1.6535978E10,0E0,0E0,0E0,0E0,0E0,0E0,0E0,0E0,0E0,0E0,0E0,0E0,0E0,0E0,0E0],"parents":[2147483647,0,0,1,1,2,2,3,3,4,4,5,5,6,6,7,7,8,8,9,9,10,10,11,11,12,12,13,13],"right_children":[2,4,6,8,10,12,14,16,18,20,22,24,26,28,-1,-1,-1,-1,-1,-1,-1,-1,-1,-1,-1,-1,-1,-1,-1],"split_conditions":[1.3747946E0,-7.1836114E-2,2.1026757E0,2.4204901E-1,3.7033343E-1,7.2456664E-1,1.8923965E0,1E0,2.291248E-1,-4.1631716E-1,1E0,3.0889145E-1,1E0,7.1978635E-1,5.0792792E2,-6.856245E2,-4.2097253E2,-2.9904684E2,3.2142185E1,-3.677219E2,-3.720425E1,4.413731E2,6.376804E1,1.2521858E2,5.939031E2,7.5126434E2,1.3108839E3,1.1852834E3,2.4079788E3],"split_indices":[4,4,16,9,16,9,29,196,3,27,204,27,253,6,0,0,0,0,0,0,0,0,0,0,0,0,0,0,0],"split_type":[0,0,0,0,0,0,0,0,0,0,0,0,0,0,0,0,0,0,0,0,0,0,0,0,0,0,0,0,0],"sum_hessian":[9.46E2,7.95E2,1.51E2,3.4E2,4.55E2,1.31E2,2E1,2.26E2,1.14E2,3.11E2,1.44E2,7.3E1,5.8E1,1.5E1,5E0,4.5E1,1.81E2,9.4E1,2E1,7.1E1,2.4E2,8.6E1,5.8E1,2.3E1,5E1,4.2E1,1.6E1,5E0,1E1],"tree_param":{"num_deleted":"0","num_feature":"261","num_nodes":"29","size_leaf_vector":"1"}},{"base_weights":[-8.9234155E2,-2.9237338E4,4.4009215E4,-4.439064E4,-1.6140511E4,2.2470008E4,9.533227E4,-6.018099E4,-3.810631E4,-2.9711584E4,-2.7259524E3,1.3144286E4,5.72844E4,7.1194945E4,1.4295205E5,-4.8576108E2,-6.7417615E2,-4.111175E2,-1.2877112E2,-4.4463748E2,-1.753006E2,-9.9518814E1,1.9392293E2,1.4726197E1,3.6465964E2,7.3363715E2,3.7146527E2,4.5286624E2,1.0297478E3,1.1082815E3,1.7044628E3],"categories":[],"categories_nodes":[],"categories_segments":[],"categories_sizes":[],"default_left":[0,0,0,0,0,0,0,0,0,0,0,0,0,0,0,0,0,0,0,0,0,0,0,0,0,0,0,0,0,0,0],"id":38,"left_children":[1,3,5,7,9,11,13,15,17,19,21,23,25,27,29,-1,-1,-1,-1,-1,-1,-1,-1,-1,-1,-1,-1,-1,-1,-1,-1],"loss_changes":[1.1938389E12,1.1339815E11,3.9913914E11,2.4102371E10,5.635449E10,8.268705E10,1.128098E11,2.9396337E9,1.4104789E10,2.6894967E10,2.5285493E10,5.547568E10,1.4760165E10,5.5442047E10,1.2022514E10,0E0,0E0,0E0,0E0,0E0,0E0,0E0,0E0,0E0,0E0,0E0,0E0,0E0,0E0,0E0,0E0],"parents":[2147483647,0,0,1,1,2,2,3,3,4,4,5,5,6,6,7,7,8,8,9,9,10,10,11,11,12,12,13,13,14,14],"right_children":[2,4,6,8,10,12,14,16,18,20,22,24,26,28,30,-1,-1,-1,-1,-1,-1,-1,-1,-1,-1,-1,-1,-1,-1,-1,-1],"split_conditions":[6.5147924E-1,3.1172463E-1,1.6503069E0,-3.8984647E-1,6.004949E-1,8.8852E-1,2.09811E0,-4.41416E-1,7.539492E-1,-2.407152E-1,1.2806852E0,5.968705E-1,-9.599866E-3,8.652883E-1,1.2193714E0,-4.8576108E2,-6.7417615E2,-4.111175E2,-1.2877112E2,-4.4463748E2,-1.753006E2,-9.9518814E1,1.9392293E2,1.4726197E1,3.6465964E2,7.3363715E2,3.7146527E2,4.5286624E2,1.0297478E3,1.1082815E3,1.7044628E3],"split_indices":[4,26,26,3,24,13,4,25,14,6,5,16,11,16,16,0,0,0,0,0,0,0,0,0,0,0,0,0,0,0,0],"split_type":[0,0,0,0,0,0,0,0,0,0,0,0,0,0,0,0,0,0,0,0,0,0,0,0,0,0,0,0,0,0,0],"sum_hessian":[9.36E2,5.74E2,3.62E2,2.65E2,3.09E2,2.56E2,1.06E2,7.3E1,1.92E2,1.53E2,1.56E2,2.03E2,5.3E1,7.2E1,3.4E1,3.1E1,4.2E1,1.71E2,2.1E1,6.8E1,8.5E1,1.18E2,3.8E1,1.36E2,6.7E1,2.8E1,2.5E1,4.1E1,3.1E1,1.8E1,1.6E1],"tree_param":{"num_deleted":"0","num_feature":"261","num_nodes":"31","size_leaf_vector":"1"}},{"base_weights":[7.395703E2,-1.4592263E4,8.719172E4,-2.7719637E4,1.8852297E4,7.1992555E4,1.9383608E5,-4.348437E4,-1.501545E4,6.529149E3,4.375741E4,5.78626E4,1.15343734E5,1.3704863E3,2.472701E3,-5.066213E2,-2.7631946E2,-2.9845358E2,-2.8645264E1,-1.8300081E2,1.3564919E2,3.351994E2,8.2313007E2,4.269541E2,8.449287E2,4.769432E2,1.2797645E3],"categories":[],"categories_nodes":[],"categories_segments":[],"categories_sizes":[],"default_left":[0,0,0,0,0,0,0,0,0,0,0,0,0,0,0,0,0,0,0,0,0,0,0,0,0,0,0],"id":39,"left_children":[1,3,5,7,9,11,13,15,17,19,21,23,25,-1,-1,-1,-1,-1,-1,-1,-1,-1,-1,-1,-1,-1,-1],"loss_changes":[1.1703368E12,3.29802E11,2.0162563E11,1.0729701E11,6.4779084E10,6.560678E10,1.4662107E10,2.5908478E10,5.3973635E10,2.5229304E10,2.487069E10,3.314801E10,1.7824973E10,0E0,0E0,0E0,0E0,0E0,0E0,0E0,0E0,0E0,0E0,0E0,0E0,0E0,0E0],"parents":[2147483647,0,0,1,1,2,2,3,3,4,4,5,5,6,6,7,7,8,8,9,9,10,10,11,11,12,12],"right_children":[2,4,6,8,10,12,14,16,18,20,22,24,26,-1,-1,-1,-1,-1,-1,-1,-1,-1,-1,-1,-1,-1,-1],"split_conditions":[1.3747946E0,6.5147924E-1,2.1026757E0,3.1172463E-1,5.873521E-1,1.7334672E0,-2.0049086E-1,-2.1303928E-1,-7.1836114E-2,1E0,1.0798751E0,9.223985E-1,1.2145603E0,1.3704863E3,2.472701E3,-5.066213E2,-2.7631946E2,-2.9845358E2,-2.8645264E1,-1.8300081E2,1.3564919E2,3.351994E2,8.2313007E2,4.269541E2,8.449287E2,4.769432E2,1.2797645E3],"split_indices":[4,4,16,26,16,9,0,12,4,216,9,16,13,0,0,0,0,0,0,0,0,0,0,0,0,0,0],"split_type":[0,0,0,0,0,0,0,0,0,0,0,0,0,0,0,0,0,0,0,0,0,0,0,0,0,0,0],"sum_hessian":[8.81E2,7.49E2,1.32E2,5.38E2,2.11E2,1.17E2,1.5E1,2.39E2,2.99E2,1.42E2,6.9E1,9E1,2.7E1,9E0,6E0,1.63E2,7.6E1,1.34E2,1.65E2,3.1E1,1.11E2,5.6E1,1.3E1,5.9E1,3.1E1,5E0,2.2E1],"tree_param":{"num_deleted":"0","num_feature":"261","num_nodes":"27","size_leaf_vector":"1"}},{"base_weights":[-5.765915E2,-1.5503654E4,7.692933E4,-3.424609E4,5.5601675E3,5.9990766E4,1.2572056E5,-3.9631867E4,-7.1357285E3,-2.6335459E4,1.3090266E4,4.0330043E4,8.9240984E4,5.8172095E2,1.4179442E5,-5.213875E2,-3.0670514E2,-2.3720668E2,-2.7339375E-1,-3.771591E2,-7.511345E1,2.3610188E2,-1.8265093E1,2.641238E2,8.565137E2,5.3810657E2,1.0049411E3,1.0761621E3,1.7821083E3],"categories":[],"categories_nodes":[],"categories_segments":[],"categories_sizes":[],"default_left":[0,0,0,0,0,0,0,0,0,0,0,0,0,0,0,0,0,0,0,0,0,0,0,0,0,0,0,0,0],"id":40,"left_children":[1,3,5,7,9,11,13,15,17,19,21,23,25,-1,27,-1,-1,-1,-1,-1,-1,-1,-1,-1,-1,-1,-1,-1,-1],"loss_changes":[1.0817707E12,3.0970367E11,1.1725236E11,6.0311503E10,8.921031E10,6.1960094E10,3.3010549E10,3.7180047E10,8.2518047E9,1.4926815E10,4.7120126E10,4.1891406E10,1.2533924E10,0E0,1.816114E10,0E0,0E0,0E0,0E0,0E0,0E0,0E0,0E0,0E0,0E0,0E0,0E0,0E0,0E0],"parents":[2147483647,0,0,1,1,2,2,3,3,4,4,5,5,6,6,7,7,8,8,9,9,10,10,11,11,12,12,14,14],"right_children":[2,4,6,8,10,12,14,16,18,20,22,24,26,-1,28,-1,-1,-1,-1,-1,-1,-1,-1,-1,-1,-1,-1,-1,-1],"split_conditions":[1.3747946E0,-1.9315366E-1,2.09811E0,4.548204E-1,3.1172463E-1,7.2456664E-1,1.6503069E0,-2.6628807E-1,-7.0333797E-1,-4.9050054E-1,1E0,1.6305647E0,2.5040206E-1,5.8172095E2,1.5487068E0,-5.213875E2,-3.0670514E2,-2.3720668E2,-2.7339375E-1,-3.771591E2,-7.511345E1,2.3610188E2,-1.8265093E1,2.641238E2,8.565137E2,5.3810657E2,1.0049411E3,1.0761621E3,1.7821083E3],"split_indices":[4,16,4,6,26,9,26,2,16,9,204,16,16,0,16,0,0,0,0,0,0,0,0,0,0,0,0,0,0],"split_type":[0,0,0,0,0,0,0,0,0,0,0,0,0,0,0,0,0,0,0,0,0,0,0,0,0,0,0,0,0],"sum_hessian":[9.33E2,7.83E2,1.5E2,4.14E2,3.69E2,1.13E2,3.7E1,3.45E2,6.9E1,7E1,2.99E2,6.9E1,4.4E1,8E0,2.9E1,1.42E2,2.03E2,2E1,4.9E1,4.3E1,2.7E1,1.75E2,1.24E2,5.4E1,1.5E1,1.2E1,3.2E1,1.7E1,1.2E1],"tree_param":{"num_deleted":"0","num_feature":"261","num_nodes":"29","size_leaf_vector":"1"}},{"base_weights":[7.107686E2,-1.1556754E4,8.472186E4,-3.1196734E4,1.298448E4,5.8731652E4,1.4073444E5,-3.8423438E4,-4.967675E3,4.158796E2,4.188848E4,3.4720203E4,9.4060516E4,1.0353743E5,2.0960008E5,-6.570438E2,-3.414956E2,-2.4299101E2,3.388189E1,-1.2457291E2,1.6848445E2,1.6974937E2,5.2810657E2,4.538498E2,-1.354389E2,5.2611017E2,1.0132295E3,1.2260109E3,4.531906E2,2.5163516E3,1.2562578E3],"categories":[],"categories_nodes":[],"categories_segments":[],"categories_sizes":[],"default_left":[0,0,0,0,0,0,0,0,0,0,0,0,0,0,0,0,0,0,0,0,0,0,0,0,0,0,0,0,0,0,0],"id":41,"left_children":[1,3,5,7,9,11,13,15,17,19,21,23,25,27,29,-1,-1,-1,-1,-1,-1,-1,-1,-1,-1,-1,-1,-1,-1,-1,-1],"loss_changes":[9.625364E11,3.932264E11,1.64972E11,8.567515E10,1.3185424E11,6.7142877E10,7.307762E10,3.9147536E10,1.6073875E10,5.394085E10,2.9035676E10,2.686571E10,4.603085E9,2.3300047E10,1.0746528E10,0E0,0E0,0E0,0E0,0E0,0E0,0E0,0E0,0E0,0E0,0E0,0E0,0E0,0E0,0E0,0E0],"parents":[2147483647,0,0,1,1,2,2,3,3,4,4,5,5,6,6,7,7,8,8,9,9,10,10,11,11,12,12,13,13,14,14],"right_children":[2,4,6,8,10,12,14,16,18,20,22,24,26,28,30,-1,-1,-1,-1,-1,-1,-1,-1,-1,-1,-1,-1,-1,-1,-1,-1],"split_conditions":[1.6503069E0,-5.9896585E-2,1.4880015E0,2.430038E-1,1E0,1.19272E0,1.3354955E0,-1.2538161E0,-6.7184454E-1,3.4293164E-2,-2.2216013E-1,3.098594E-1,5.3949344E-1,3.7752706E-1,5.033678E-1,-6.570438E2,-3.414956E2,-2.4299101E2,3.388189E1,-1.2457291E2,1.6848445E2,1.6974937E2,5.2810657E2,4.538498E2,-1.354389E2,5.2611017E2,1.0132295E3,1.2260109E3,4.531906E2,2.5163516E3,1.2562578E3],"split_indices":[26,16,12,12,176,16,16,27,7,3,12,1,7,11,29,0,0,0,0,0,0,0,0,0,0,0,0,0,0,0,0],"split_type":[0,0,0,0,0,0,0,0,0,0,0,0,0,0,0,0,0,0,0,0,0,0,0,0,0,0,0,0,0,0,0],"sum_hessian":[9.32E2,8.14E2,1.18E2,4.52E2,3.62E2,8.2E1,3.6E1,3.54E2,9.8E1,2.53E2,1.09E2,5E1,3.2E1,2.5E1,1.1E1,4.6E1,3.08E2,2.9E1,6.9E1,1.42E2,1.11E2,3.4E1,7.5E1,4.1E1,9E0,6E0,2.6E1,1.8E1,7E0,6E0,5E0],"tree_param":{"num_deleted":"0","num_feature":"261","num_nodes":"31","size_leaf_vector":"1"}},{"base_weights":[-1.6892844E2,-1.2976603E4,9.003357E4,-3.1241605E4,1.2346844E4,7.4866266E4,1.8818016E5,-5.0685105E4,-2.0957734E4,-3.8857773E3,3.2142254E4,5.4282566E4,1.1884002E5,1.0909634E3,2.4374146E3,-6.7818146E2,-4.3894427E2,-3.7692233E2,-1.2290034E2,-2.8741446E2,7.169637E1,4.5182748E2,3.5927464E1,-1.3319247E2,6.2940906E2,5.981372E2,1.3016095E3],"categories":[],"categories_nodes":[],"categories_segments":[],"categories_sizes":[],"default_left":[0,0,0,0,0,0,0,0,0,0,0,0,0,0,0,0,0,0,0,0,0,0,0,0,0,0,0],"id":42,"left_children":[1,3,5,7,9,11,13,15,17,19,21,23,25,-1,-1,-1,-1,-1,-1,-1,-1,-1,-1,-1,-1,-1,-1],"loss_changes":[1.08713555E12,3.8151278E11,1.6008013E11,9.471594E10,1.1130556E11,8.677877E10,3.931875E10,1.6220062E10,4.5227393E10,5.2690907E10,5.791644E10,4.2981327E10,1.3598032E10,0E0,0E0,0E0,0E0,0E0,0E0,0E0,0E0,0E0,0E0,0E0,0E0,0E0,0E0],"parents":[2147483647,0,0,1,1,2,2,3,3,4,4,5,5,6,6,7,7,8,8,9,9,10,10,11,11,12,12],"right_children":[2,4,6,8,10,12,14,16,18,20,22,24,26,-1,-1,-1,-1,-1,-1,-1,-1,-1,-1,-1,-1,-1,-1],"split_conditions":[1.6503069E0,-5.9896585E-2,2.2473547E0,-5.0568116E-1,-1.0100105E-2,1.4526215E0,-4.7334823E-1,1E0,3.1172463E-1,1.2275854E0,1E0,1.8985446E-1,8.8513285E-2,1.0909634E3,2.4374146E3,-6.7818146E2,-4.3894427E2,-3.7692233E2,-1.2290034E2,-2.8741446E2,7.169637E1,4.5182748E2,3.5927464E1,-1.3319247E2,6.2940906E2,5.981372E2,1.3016095E3],"split_indices":[26,16,16,6,12,13,0,196,26,20,204,6,3,0,0,0,0,0,0,0,0,0,0,0,0,0,0],"split_type":[0,0,0,0,0,0,0,0,0,0,0,0,0,0,0,0,0,0,0,0,0,0,0,0,0,0,0],"sum_hessian":[9.39E2,8.23E2,1.16E2,4.78E2,3.45E2,1.02E2,1.4E1,1.64E2,3.14E2,1.9E2,1.55E2,7.1E1,3.1E1,7E0,7E0,4.4E1,1.2E2,1.06E2,2.08E2,5.8E1,1.32E2,1.06E2,4.9E1,8E0,6.3E1,6E0,2.5E1],"tree_param":{"num_deleted":"0","num_feature":"261","num_nodes":"27","size_leaf_vector":"1"}},{"base_weights":[-2.8596687E3,-1.6434969E4,7.538979E4,-2.7179574E4,1.4731149E4,3.0591639E4,8.960451E4,-4.208559E4,-1.4705005E4,3.801261E3,3.5912055E4,-2.137755E1,4.036841E4,7.032778E4,1.2313126E5,-6.728967E2,-3.818589E2,-2.6572488E2,-1.7611988E1,-1.2160599E1,2.7475146E2,2.6184662E2,7.654873E2,2.818413E2,5.1321936E2,4.6449277E2,8.9724066E2,7.9292584E2,1.3071719E3],"categories":[],"categories_nodes":[],"categories_segments":[],"categories_sizes":[],"default_left":[0,0,0,0,0,0,0,0,0,0,0,0,0,0,0,0,0,0,0,0,0,0,0,0,0,0,0,0,0],"id":43,"left_children":[1,3,5,7,9,11,13,15,17,19,21,-1,23,25,27,-1,-1,-1,-1,-1,-1,-1,-1,-1,-1,-1,-1,-1,-1],"loss_changes":[9.98701E11,2.6862934E11,8.577306E10,1.1020504E11,4.755351E10,1.1285871E10,5.9200504E10,2.4066654E10,5.0030207E10,1.6306203E10,2.5665823E10,0E0,2.1569823E9,2.779005E10,1.939669E9,0E0,0E0,0E0,0E0,0E0,0E0,0E0,0E0,0E0,0E0,0E0,0E0,0E0,0E0],"parents":[2147483647,0,0,1,1,2,2,3,3,4,4,5,5,6,6,7,7,8,8,9,9,10,10,12,12,13,13,14,14],"right_children":[2,4,6,8,10,12,14,16,18,20,22,-1,24,26,28,-1,-1,-1,-1,-1,-1,-1,-1,-1,-1,-1,-1,-1,-1],"split_conditions":[1.3747946E0,6.5147924E-1,2.2755799E-1,3.1172463E-1,5.873521E-1,4.619045E-1,1.4329903E0,-5.171998E-1,6.004949E-1,9.2022777E-1,1.0798751E0,-2.137755E1,-1.6151121E-1,1.6503069E0,3.5320038E-1,-6.728967E2,-3.818589E2,-2.6572488E2,-1.7611988E1,-1.2160599E1,2.7475146E2,2.6184662E2,7.654873E2,2.818413E2,5.1321936E2,4.6449277E2,8.9724066E2,7.9292584E2,1.3071719E3],"split_indices":[4,4,16,26,16,12,9,5,24,12,9,0,9,26,16,0,0,0,0,0,0,0,0,0,0,0,0,0,0],"split_type":[0,0,0,0,0,0,0,0,0,0,0,0,0,0,0,0,0,0,0,0,0,0,0,0,0,0,0,0,0],"sum_hessian":[9.38E2,8E2,1.38E2,5.95E2,2.05E2,3.4E1,1.04E2,2.7E2,3.25E2,1.36E2,6.9E1,8E0,2.6E1,6.8E1,3.6E1,3.4E1,2.36E2,1.69E2,1.56E2,1.13E2,2.3E1,5.7E1,1.2E1,1.4E1,1.2E1,3.2E1,3.6E1,7E0,2.9E1],"tree_param":{"num_deleted":"0","num_feature":"261","num_nodes":"29","size_leaf_vector":"1"}},{"base_weights":[9.2192804E2,-1.1296765E4,8.233791E4,-3.236132E4,1.0117243E4,6.822591E4,2.024844E3,-4.0821125E4,-1.077952E4,-1.0054474E3,3.884315E4,8.124116E4,-1.788472E4,-6.241018E2,-3.5778397E2,-2.3515237E2,1.9224722E1,-1.5323112E2,1.4793489E2,2.4285352E2,6.578725E2,6.075057E2,1.2092362E3,-3.9353955E2,5.8201054E1],"categories":[],"categories_nodes":[],"categories_segments":[],"categories_sizes":[],"default_left":[0,0,0,0,0,0,0,0,0,0,0,0,0,0,0,0,0,0,0,0,0,0,0,0,0],"id":44,"left_children":[1,3,5,7,9,11,-1,13,15,17,19,21,23,-1,-1,-1,-1,-1,-1,-1,-1,-1,-1,-1,-1],"loss_changes":[9.0719014E11,3.5803113E11,1.8795063E11,7.259108E10,1.2592573E11,1.2249419E11,0E0,2.9012034E10,1.8486874E10,6.4694796E10,4.1549464E10,6.908681E10,7.8629125E9,0E0,0E0,0E0,0E0,0E0,0E0,0E0,0E0,0E0,0E0,0E0,0E0],"parents":[2147483647,0,0,1,1,2,2,3,3,4,4,5,5,7,7,8,8,9,9,10,10,11,11,12,12],"right_children":[2,4,6,8,10,12,-1,14,16,18,20,22,24,-1,-1,-1,-1,-1,-1,-1,-1,-1,-1,-1,-1],"split_conditions":[1.6503069E0,-1.9315366E-1,2.2473547E0,9.0492226E-2,1E0,1E0,2.024844E3,-1.1462045E0,-5.853102E-1,1.3201163E-3,1.0425897E0,1.2509495E0,-9.37926E-1,-6.241018E2,-3.5778397E2,-2.3515237E2,1.9224722E1,-1.5323112E2,1.4793489E2,2.4285352E2,6.578725E2,6.075057E2,1.2092362E3,-3.9353955E2,5.8201054E1],"split_indices":[26,16,16,6,176,153,0,27,16,3,9,9,9,0,0,0,0,0,0,0,0,0,0,0,0],"split_type":[0,0,0,0,0,0,0,0,0,0,0,0,0,0,0,0,0,0,0,0,0,0,0,0,0],"sum_hessian":[9.1E2,7.92E2,1.18E2,3.99E2,3.93E2,1.07E2,1.1E1,2.86E2,1.13E2,2.84E2,1.09E2,9.3E1,1.4E1,5.2E1,2.34E2,5.6E1,5.7E1,1.49E2,1.35E2,7.2E1,3.7E1,6.3E1,3E1,7E0,7E0],"tree_param":{"num_deleted":"0","num_feature":"261","num_nodes":"25","size_leaf_vector":"1"}},{"base_weights":[-5.358003E2,-1.1871074E4,8.062148E4,-3.1590748E4,8.979828E3,4.3355668E4,1.23503375E5,-3.8743715E4,-4.874299E3,3.0414475E4,-7.4233164E3,5.732994E4,-1.964798E4,7.932943E4,1.5580239E5,-5.154018E2,-2.9862726E2,-2.0396442E2,3.3640186E1,2.0468283E2,7.138739E2,-1.717557E2,9.034912E1,3.3850208E2,8.9260504E2,-3.9040002E2,6.2507084E1,5.5511774E2,1.0243104E3,1.901286E3,1.2426255E3],"categories":[],"categories_nodes":[],"categories_segments":[],"categories_sizes":[],"default_left":[0,0,0,0,0,0,0,0,0,0,0,0,0,0,0,0,0,0,0,0,0,0,0,0,0,0,0,0,0,0,0],"id":45,"left_children":[1,3,5,7,9,11,13,15,17,19,21,23,25,27,29,-1,-1,-1,-1,-1,-1,-1,-1,-1,-1,-1,-1,-1,-1,-1,-1],"loss_changes":[8.4822177E11,3.3292265E11,1.7522275E11,7.9309505E10,1.3875446E11,5.5713096E10,6.183256E10,3.573655E10,1.1449609E10,6.8225483E10,3.610826E10,3.5214295E10,6.270763E9,7.5193057E9,7.7708E9,0E0,0E0,0E0,0E0,0E0,0E0,0E0,0E0,0E0,0E0,0E0,0E0,0E0,0E0,0E0,0E0],"parents":[2147483647,0,0,1,1,2,2,3,3,4,4,5,5,6,6,7,7,8,8,9,9,10,10,11,11,12,12,13,13,14,14],"right_children":[2,4,6,8,10,12,14,16,18,20,22,24,26,28,30,-1,-1,-1,-1,-1,-1,-1,-1,-1,-1,-1,-1,-1,-1,-1,-1],"split_conditions":[1.6503069E0,-1.9315366E-1,8.652883E-1,2.1564122E-1,1E0,1E0,6.789227E-1,-8.140122E-1,-6.7184454E-1,8.605489E-1,9.081839E-2,1.1078101E0,-6.7184454E-1,5.788585E-1,6.20575E-1,-5.154018E2,-2.9862726E2,-2.0396442E2,3.3640186E1,2.0468283E2,7.138739E2,-1.717557E2,9.034912E1,3.3850208E2,8.9260504E2,-3.9040002E2,6.2507084E1,5.5511774E2,1.0243104E3,1.901286E3,1.2426255E3],"split_indices":[26,16,16,12,153,153,13,27,7,9,3,17,7,29,28,0,0,0,0,0,0,0,0,0,0,0,0,0,0,0,0],"split_type":[0,0,0,0,0,0,0,0,0,0,0,0,0,0,0,0,0,0,0,0,0,0,0,0,0,0,0,0,0,0,0],"sum_hessian":[9.2E2,8.08E2,1.12E2,4.15E2,3.93E2,6.1E1,5.1E1,3.27E2,8.8E1,1.7E2,2.23E2,5E1,1.1E1,2.3E1,2.8E1,1.32E2,1.95E2,3E1,5.8E1,1.38E2,3.2E1,1.4E2,8.3E1,3E1,2E1,6E0,5E0,1.3E1,1E1,1.1E1,1.7E1],"tree_param":{"num_deleted":"0","num_feature":"261","num_nodes":"31","size_leaf_vector":"1"}},{"base_weights":[-1.0414014E3,-1.5415847E4,7.49311E4,-3.656087E4,8.5127625E2,5.1277473E4,1.1303924E5,-6.261619E4,-3.2066484E4,-2.333146E4,1.1777285E4,-2.7128452E3,5.766119E4,9.300966E4,1.8039938E5,-6.774743E2,-3.5316498E2,-3.9712296E2,-2.2914003E2,-4.2023703E2,-1.5772432E2,4.3124416E1,3.4900842E2,-2.1661797E2,1.6688248E2,1.9177847E2,6.372451E2,1.01237146E3,2.1286859E2,1.053989E3,2.3783335E3],"categories":[],"categories_nodes":[],"categories_segments":[],"categories_sizes":[],"default_left":[0,0,0,0,0,0,0,0,0,0,0,0,0,0,0,0,0,0,0,0,0,0,0,0,0,0,0,0,0,0,0],"id":46,"left_children":[1,3,5,7,9,11,13,15,17,19,21,23,25,27,29,-1,-1,-1,-1,-1,-1,-1,-1,-1,-1,-1,-1,-1,-1,-1,-1],"loss_changes":[1.0364305E12,2.7451811E11,1.303144E11,3.8626787E10,1.1970259E11,3.289904E10,6.0125282E10,4.6114734E9,1.994349E10,1.925981E10,5.3704983E10,4.4054313E9,1.8611536E10,2.49895E10,2.6623508E10,0E0,0E0,0E0,0E0,0E0,0E0,0E0,0E0,0E0,0E0,0E0,0E0,0E0,0E0,0E0,0E0],"parents":[2147483647,0,0,1,1,2,2,3,3,4,4,5,5,6,6,7,7,8,8,9,9,10,10,11,11,12,12,13,13,14,14],"right_children":[2,4,6,8,10,12,14,16,18,20,22,24,26,28,30,-1,-1,-1,-1,-1,-1,-1,-1,-1,-1,-1,-1,-1,-1,-1,-1],"split_conditions":[1.3747946E0,-7.1836114E-2,1.3542918E0,1E0,7.897405E-1,-5.218389E-1,1.3900228E0,1.3948092E-2,-2.8626004E-1,-3.280095E-1,1.1893506E0,9.5163155E-1,-4.02703E-1,5.017287E-1,8.191486E-1,-6.774743E2,-3.5316498E2,-3.9712296E2,-2.2914003E2,-4.2023703E2,-1.5772432E2,4.3124416E1,3.4900842E2,-2.1661797E2,1.6688248E2,1.9177847E2,6.372451E2,1.01237146E3,2.1286859E2,1.053989E3,2.3783335E3],"split_indices":[4,4,13,196,19,3,21,3,13,3,14,